0.021920
0.015763
0.109736
0.008014
0.112441
-0.122765
-0.030698
-0.049318
-0.053898
0.055204
0.063656
-0.002510
0.060029
-0.060227
0.011624
-0.080064
-0.086847
0.069519
-0.023451
0.056154
0.014320
-0.041468
-0.015454
0.130130
-0.068771
-0.030229
0.057302
-0.088272
-0.017282
0.123020
-0.095232
0.048593
0.124052
0.019285
-0.017591
-0.103405
-0.224946
0.026743
0.028772
0.070278
0.083230
-0.102868
0.134693
0.045313
0.156656
-0.032002
0.294595
0.131795
-0.041943
0.030465
-0.030890
-0.093998
0.023381
-0.013230
-0.046197
0.077897
-0.155049
-0.012708
-0.135865
0.022061
0.185049
0.299304
-0.234143
0.221001
-0.063357
0.197834
0.065755
-0.174385
-0.251744
-0.196841
0.258115
-0.284973
-0.033801
-0.278569
0.126374
0.002559
0.047730
-0.016451
-0.015124
0.054012
-0.063525
-0.290065
-0.104463
0.007122
-0.004979
-0.121889
0.368509
-0.104514
0.026951
-0.088059
-0.060970
0.199042
0.230798
-0.107319
-0.001088
0.101844
-0.076016
0.031600
-0.096419
-0.067528
0.002337
-0.038006
0.035772
0.033086
-0.161341
-0.003642
0.003385
-0.163405
0.094788
0.081803
-0.077591
0.066981
-0.296538
0.287230
0.116862
0.012760
-0.004936
0.090632
0.056247
-0.053037
0.096551
-0.035991
0.045589
0.124067
-0.105097
