0.021920
-0.122765
0.063656
-0.080064
0.014320
-0.030229
-0.095232
-0.103405
0.083230
-0.032002
-0.030890
0.077897
0.185049
0.197834
0.258115
0.002559
-0.063525
-0.121889
-0.060970
0.101844
0.002337
-0.003642
-0.077591
0.012760
0.096551
0.015763
-0.030698
-0.002510
-0.086847
-0.041468
0.057302
0.048593
-0.224946
-0.102868
0.294595
-0.093998
-0.155049
0.299304
0.065755
-0.284973
0.047730
-0.290065
0.368509
0.199042
-0.076016
-0.038006
0.003385
0.066981
-0.004936
-0.035991
0.109736
-0.049318
0.060029
0.069519
-0.015454
-0.088272
0.124052
0.026743
0.134693
0.131795
0.023381
-0.012708
-0.234143
-0.174385
-0.033801
-0.016451
-0.104463
-0.104514
0.230798
0.031600
0.035772
-0.163405
-0.296538
0.090632
0.045589
0.008014
-0.053898
-0.060227
-0.023451
0.130130
-0.017282
0.019285
0.028772
0.045313
-0.041943
-0.013230
-0.135865
0.221001
-0.251744
-0.278569
-0.015124
0.007122
0.026951
-0.107319
-0.096419
0.033086
0.094788
0.287230
0.056247
0.124067
0.112441
0.055204
0.011624
0.056154
-0.068771
0.123020
-0.017591
0.070278
0.156656
0.030465
-0.046197
0.022061
-0.063357
-0.196841
0.126374
0.054012
-0.004979
-0.088059
-0.001088
-0.067528
-0.161341
0.081803
0.116862
-0.053037
-0.105097
-0.022901
-0.015129
-0.054112
0.021307
0.021640
0.098056
-0.022455
0.038994
-0.227134
0.087966
-0.069164
-0.056334
0.060288
0.120585
0.077190
-0.171599
-0.236135
-0.095146
0.224746
-0.033630
0.127592
-0.006353
-0.164383
-0.001508
0.103316
0.057265
0.063171
-0.131815
0.031936
0.155324
0.077373
0.126957
-0.204051
0.046773
-0.013226
-0.062391
0.207208
-0.056123
-0.018326
0.049454
0.020746
0.051327
0.020336
0.066588
-0.018198
-0.134725
0.034205
-0.089034
0.032674
-0.084118
0.034071
0.117381
0.209957
-0.151667
-0.037964
-0.046341
0.133763
-0.073302
-0.061342
-0.017205
-0.122388
0.095806
-0.019869
0.202995
0.075191
-0.011520
0.345890
0.232601
0.196039
0.053284
0.017991
0.055209
-0.397485
-0.255935
-0.300769
-0.401685
-0.040375
-0.165559
0.063856
-0.286291
-0.058558
-0.039469
0.033317
-0.002489
-0.062283
-0.004851
0.029627
0.048377
0.164649
0.062196
0.031404
-0.104115
-0.218824
-0.016916
0.140514
0.031535
-0.039555
0.006215
-0.012710
0.185560
0.007231
0.039698
0.128648
-0.049854
0.033237
-0.016790
0.019027
-0.092491
0.133500
0.152211
0.047055
0.027482
-0.038229
0.004762
-0.084245
0.069136
0.012197
-0.087639
0.060316
-0.147420
0.118715
-0.023332
0.116334
0.062340
0.004019
0.076429
-0.049880
-0.076754
-0.064906
-0.126686
-0.207979
-0.183255
-0.050772
0.048371
0.017571
-0.125334
-0.165746
-0.099588
-0.186264
-0.052398
0.001628
-0.045184
0.072969
0.221620
-0.112249
-0.043564
-0.071569
-0.023252
-0.015347
0.034784
0.012585
-0.184511
0.111447
-0.067626
0.107265
0.117685
0.087699
0.047995
0.046443
0.054848
-0.096788
-0.093915
0.016272
0.114387
-0.009893
0.023502
0.017482
0.025543
-0.037080
-0.110403
-0.039798
0.027342
-0.203491
-0.045118
0.049514
-0.107436
0.123404
0.062094
0.014218
0.009399
-0.077099
0.002906
0.028287
0.021894
-0.011180
0.053172
-0.047881
0.113296
-0.151877
0.106317
0.073212
-0.044759
-0.028636
0.084130
0.007262
-0.146634
0.041180
0.009270
0.037081
0.062066
-0.072691
-0.031587
0.169860
-0.032211
-0.002305
0.062296
0.017745
-0.119263
-0.042358
-0.030346
-0.038171
0.043393
-0.058509
-0.139301
-0.224888
0.061343
-0.074822
-0.071489
-0.006071
-0.119141
-0.054996
-0.178666
-0.011707
-0.216033
-0.011211
0.008831
-0.131669
-0.124343
0.032423
0.116384
0.014843
0.053477
0.029847
0.171343
0.143836
0.136285
0.142727
0.119863
-0.054245
0.080114
-0.078829
0.085178
-0.106403
0.089847
-0.060963
-0.293984
-0.392581
-0.675846
-0.184643
0.120740
-0.025509
-0.148093
-0.118249
0.041730
-0.578593
0.305772
0.041137
0.031131
0.099155
0.077183
0.035636
-0.130241
0.064251
0.081291
0.089058
0.012936
-0.124972
-0.066351
0.274855
0.055876
0.177664
-0.003900
0.052297
0.003896
0.232807
-0.016879
-0.024053
-0.011354
0.026820
-0.039505
-0.032294
0.027072
0.026599
0.087184
0.054297
0.011043
0.018586
-0.016093
0.127721
0.096321
-0.014826
0.104471
0.025681
0.130368
-0.034226
-0.032597
-0.190517
-0.135141
-0.111987
-0.087984
-0.135548
-0.217677
-0.050057
-0.009956
-0.026045
0.013302
-0.159599
-0.011887
0.192014
-0.129636
-0.011860
-0.526433
0.305924
-0.010014
0.020946
-0.093080
0.098337
0.516801
-0.009658
-0.009553
-0.236682
0.009451
0.070215
-0.179707
-0.019677
0.043330
0.082746
0.004436
-0.122391
0.067921
0.242578
0.036664
0.233716
0.238183
-0.016528
0.053841
-0.047103
0.048020
-0.027306
0.070256
0.044615
0.030894
-0.125389
-0.004121
0.043276
-0.024727
-0.051859
0.011831
0.090378
0.008856
-0.104925
-0.006992
-0.063548
-0.048333
-0.105773
-0.091314
-0.079277
-0.056731
0.244904
-0.086980
-0.008360
-0.014624
-0.078396
0.030867
-0.076046
-0.056109
-0.036307
-0.035822
0.022363
0.023789
0.038456
-0.108262
-0.107829
-0.139213
-0.260864
-0.064843
0.057457
0.156393
0.165692
0.151078
0.046080
-0.037007
-0.222819
-0.465236
0.305699
-0.067943
-0.156759
-0.237292
-0.326981
-0.341659
-0.222034
0.179598
0.037006
0.031524
0.008514
-0.027345
0.031310
0.033403
0.031880
-0.231702
0.007532
0.017659
-0.038483
-0.116322
-0.089263
-0.123591
0.069481
0.218569
0.052458
0.010368
0.037094
0.188834
0.045078
0.002084
-0.046021
-0.050091
-0.142488
-0.098908
-0.028782
0.016003
0.042722
0.023083
-0.061885
-0.006348
-0.145041
-0.155170
-0.076107
0.004674
0.015653
0.073924
0.042428
-0.022296
0.076629
0.035322
0.034525
0.136691
0.074290
-0.053500
0.050592
-0.002733
-0.017267
0.025690
-0.057373
-0.037233
-0.073979
0.169502
-0.198384
0.234033
0.047542
0.083227
0.086862
0.071806
0.291600
-0.018317
-0.015056
0.024450
0.044554
0.033615
-0.007750
-0.369858
-1.471297
-0.173746
0.093295
0.064478
-0.048270
-0.016782
0.162210
-0.636630
-0.029772
-0.053167
-0.095069
-0.115481
-0.175123
-0.226140
0.063802
-0.098230
-0.036430
-0.003789
-0.019162
-0.017355
0.056100
0.066201
-0.144128
-0.138006
-0.027975
0.045376
0.050078
-0.037192
-0.232256
-0.117849
-0.016750
0.077165
0.312274
0.270042
0.109891
-0.353792
-0.013890
-0.052943
-0.023936
0.153046
0.070457
-0.154915
-0.089111
0.083802
0.046703
-0.019764
0.112099
0.081316
0.144816
0.025777
-0.006208
0.075499
-0.082386
0.065617
-0.074866
-0.217010
-0.115040
0.039377
0.007966
0.057013
-0.134021
-0.029021
0.022208
-0.072496
-0.145844
-0.121005
0.103389
-0.211175
-0.170213
-0.028142
-0.065587
0.012900
-0.014135
-0.271306
-0.073963
-0.241238
0.007365
-0.079321
0.016779
-0.073462
-0.044773
-0.042530
0.004636
-0.049938
-0.011350
0.005803
0.051015
-0.116196
-0.256825
0.115734
0.114364
0.085931
0.057218
0.037404
-0.040757
-0.366530
-0.110442
0.257501
0.151860
0.064636
-0.151143
0.121953
0.109643
0.073689
0.135183
-0.005026
-0.114213
-0.043406
-0.047807
-0.024685
-0.170070
-0.308545
-0.195887
-0.063601
0.063101
0.021134
-0.075907
-0.091393
0.005690
0.024519
0.074554
-0.174456
0.108608
-0.086299
0.026453
-0.017611
0.155555
-0.028015
0.024340
-0.056710
-0.115765
0.002888
-0.062285
0.096220
-0.099716
-0.013209
0.102666
-0.035153
0.075108
-0.067695
-0.111855
0.070220
-0.036272
0.076698
-0.249274
-0.063124
-0.019725
0.007146
-0.105930
-0.057811
0.028106
0.075884
-0.099842
-0.110122
0.007986
0.081378
-0.045742
0.142545
0.101174
0.227385
0.013561
0.165278
0.275878
0.070900
-0.068872
-0.009769
0.008881
-0.037997
-0.038548
0.154220
0.139550
0.006873
-0.017264
-0.038488
-0.145901
-0.075505
0.130124
-0.000039
0.012823
-0.079840
-0.030805
-0.009131
0.005427
-0.027755
0.069224
-0.000973
0.035024
-0.006835
0.007590
0.072492
0.074455
0.018553
-0.087621
-0.095704
0.055576
-0.189911
-0.018522
-0.003470
-0.020277
-0.195167
-0.157243
0.118948
0.060712
0.008999
0.004288
-0.062099
-0.045532
-0.020080
0.057177
-0.032853
0.147682
0.042780
-0.083996
0.040166
0.182644
0.140447
0.027572
0.013190
0.072695
0.030927
-0.061588
0.042110
0.181451
-0.037454
0.077881
0.029164
-0.074977
-0.031858
0.069119
-0.074884
-0.001385
0.125086
0.061061
-0.109888
-0.068056
-0.061009
-0.158424
-0.007188
0.198117
0.176328
-0.026500
-0.033467
-0.046933
-0.018203
0.032013
-0.178881
-0.092723
0.049921
0.079881
0.006233
0.048363
-0.091575
-0.016046
-0.208505
-0.061881
-0.025522
0.034383
-0.123464
-0.114779
-0.039897
0.089069
-0.051413
0.022849
-0.100502
0.069843
-0.139443
0.100331
0.108419
-0.110481
0.030305
-0.252723
-0.118396
-0.131999
0.079340
0.005763
0.022974
-0.136785
-0.317000
-0.101041
0.100625
-0.040828
0.043229
0.157426
0.306663
0.148065
0.134768
-0.132187
0.005770
0.045089
-0.032564
0.443427
-0.020089
0.021041
0.136778
0.018722
0.054280
-0.002474
-0.077146
-0.071402
-0.065470
0.200254
-0.109027
-0.074453
-0.027829
-0.028353
0.016608
0.171331
-0.082395
-0.078024
0.081033
0.029260
-0.033444
-0.094521
0.011310
-0.005324
0.064014
-0.120261
0.158399
0.007618
0.081882
0.091391
0.059676
0.033541
0.026460
-0.126690
0.027949
0.155536
-0.301789
0.004504
-0.091858
-0.089396
0.032688
0.136242
0.198374
-0.555693
-0.037512
0.043056
0.141009
0.020408
0.116673
0.254246
-0.215711
0.271923
0.065163
0.063302
-0.139630
0.148401
0.221710
-0.146623
0.016865
-0.084173
-0.005389
0.020755
-0.103862
0.171383
-0.092440
-0.335545
-0.113490
0.076715
0.014639
-0.076729
-0.148625
0.019964
0.048498
0.029631
-0.096473
-0.134318
0.020591
0.001111
0.180749
-0.110822
-0.048081
0.009676
0.023544
-0.058713
0.021593
0.097257
-0.086828
0.003922
-0.124608
0.046979
-0.067786
0.008417
-0.039225
0.007559
-0.029751
-0.216764
-0.036377
-0.062985
-0.093566
0.144516
0.093859
0.015993
0.120712
0.098656
-0.171955
-0.112365
-0.044506
-0.099918
0.017328
-0.211310
-0.161180
0.026694
0.005172
0.137469
0.014873
-0.177495
-0.339864
-0.119357
-0.001087
0.057746
0.264746
0.154279
-0.015151
0.016830
0.089050
0.050549
-0.013561
-0.061942
0.015141
-0.087496
-0.056538
-0.100184
0.219310
0.023581
-0.016610
0.079893
-0.058595
-0.104215
0.072404
-0.036812
0.043210
-0.069072
0.065745
-0.078031
0.116831
-0.015462
-0.023629
-0.092105
0.037473
0.118770
-0.114937
0.007139
0.031283
0.052529
-0.069968
0.064056
0.065430
0.069395
-0.015172
-0.033244
-0.030618
-0.176182
0.015805
0.109632
0.040026
0.045101
-0.046698
0.128125
-0.027610
-0.026324
-0.025183
0.010259
0.055142
0.022253
0.013016
0.021313
-0.052407
0.142895
-0.095809
0.055242
-0.015992
-0.160046
-0.147041
0.138008
0.254369
0.195148
-0.234947
0.022455
-0.083719
0.075378
0.045109
-0.088289
-0.192909
-0.391231
0.054026
-0.008947
0.117754
0.065553
0.155101
-0.037457
-0.044069
0.025208
-0.073073
0.087216
0.079330
0.107580
0.037205
-0.048415
0.008109
0.028793
-0.029242
0.017116
-0.001841
-0.130392
0.192327
-0.077011
0.119816
0.131842
0.004772
-0.017377
-0.050499
0.015772
0.085404
-0.027108
-0.031264
-0.069609
0.000899
0.023454
-0.043889
-0.071928
0.203762
-0.121614
-0.152353
-0.112115
0.033530
0.081161
-0.150005
0.030360
0.013173
0.016255
0.067356
-0.152208
0.087095
-0.120931
-0.027446
-0.052284
-0.014949
0.007384
-0.071650
0.017586
0.082747
-0.041728
-0.066402
0.120687
-0.116001
0.000413
0.221776
-0.029936
-0.033807
0.017008
-0.066017
0.047472
-0.087387
0.003230
-0.137259
0.036498
-0.000285
-0.097272
-0.056391
-0.027650
-0.099663
-0.186721
-0.038725
-0.027607
-0.063382
0.085196
-0.085644
-0.107280
-0.017517
0.125610
-0.068287
0.159922
0.043873
-0.017112
0.013559
-0.017051
0.183003
0.096909
-0.208139
-0.271627
-0.041980
0.001915
0.017542
0.249043
0.001073
0.033296
0.112657
0.171677
-0.007983
-0.016189
-0.162956
0.020597
-0.038874
0.095950
-0.014510
-0.101902
0.095339
0.117075
-0.219688
0.068197
-0.190725
-0.036622
0.116971
0.010917
-0.005966
-0.079713
0.073872
-0.096293
-0.182322
-0.090443
-0.074389
-0.065027
-0.146312
-0.086614
-0.102760
-0.018639
-0.005753
0.117862
0.178259
-0.007890
0.018234
0.000278
0.240657
0.042126
0.099209
-0.084148
-0.044786
-0.071210
-0.015554
0.056068
0.068950
-0.011002
0.045402
0.083842
0.074951
-0.032245
-0.084369
-0.010299
-0.014162
0.032487
-0.012975
0.051494
0.098462
-0.041710
-0.107626
-0.101124
-0.109261
-0.076726
0.044775
-0.060247
0.109360
-0.137182
-0.004568
0.094287
-0.067645
-0.097639
-0.050370
0.170065
0.036860
-0.054462
0.107346
-0.002652
0.278418
-0.035707
-0.012003
0.176426
-0.029722
0.090327
0.019065
-0.089773
0.072437
-0.006831
-0.021350
0.110894
0.098523
0.049190
0.197648
-0.029851
0.013143
0.044945
-0.118374
-0.039731
-0.013202
-0.046286
0.147630
-0.056428
0.047906
0.044681
0.094265
-0.119186
-0.102931
0.007260
-0.084593
0.077008
-0.086265
-0.041385
0.118445
0.005412
0.119610
-0.031025
-0.112881
0.040474
0.103360
-0.162989
0.115697
0.084016
-0.093337
-0.031236
0.030250
0.049225
0.069477
0.129127
0.117015
0.119465
0.213367
0.091844
-0.075084
0.013160
0.010751
0.026809
0.034675
-0.144675
0.009895
-0.032589
0.141511
-0.000687
-0.007868
-0.246819
-0.279380
-0.074521
0.045315
-0.021886
0.163838
0.010220
-0.030147
-0.056868
0.094137
0.008942
-0.019224
-0.020717
-0.017575
-0.105979
-0.078149
0.091070
0.021943
0.068844
0.019861
0.063460
-0.014598
0.028775
0.141575
-0.003432
0.014891
0.040725
0.050737
-0.062373
0.040312
-0.101017
-0.039322
-0.186693
-0.003154
-0.139158
-0.249994
-0.199524
-0.052474
0.125091
0.143794
0.016274
0.156547
0.144222
-0.007091
0.159380
0.068073
-0.014713
0.097897
-0.075581
-0.035551
0.010062
0.037432
-0.111881
-0.009121
-0.054231
0.024163
0.058461
-0.147462
-0.081421
0.032638
0.006718
0.094864
0.015670
-0.110721
-0.099850
-0.006952
-0.072459
-0.035186
0.072616
0.079857
0.125015
0.041834
-0.081298
-0.000970
0.043502
-0.067927
-0.019260
-0.010275
0.150324
0.097260
-0.061842
-0.137111
0.011638
0.146772
-0.078884
-0.071072
0.170050
0.072949
-0.134935
-0.089668
0.121072
0.040674
0.052088
-0.102340
0.110903
0.022443
0.024163
0.083822
0.042664
-0.025880
0.055763
0.037158
0.026536
-0.009924
-0.068477
0.006655
0.061541
0.082887
-0.143166
-0.062233
0.157440
-0.010845
0.144627
-0.038246
0.082792
0.091015
0.077099
0.007137
0.070527
-0.022243
-0.232540
0.049421
-0.004053
-0.098640
0.114992
-0.079640
0.165518
-0.030842
0.100434
0.013220
0.088405
-0.030844
0.089232
0.110377
-0.144239
0.053198
-0.022377
-0.018453
-0.139256
0.151616
0.028105
-0.079440
0.054051
-0.134892
-0.073160
-0.166918
0.072801
-0.159922
-0.007852
0.140133
0.090113
0.021058
-0.090820
0.137179
0.158398
0.127412
-0.127112
-0.085722
0.352697
0.241027
0.042844
0.071721
0.085498
-0.112869
0.062919
0.109203
-0.015601
0.239287
-0.120742
-0.015441
-0.047699
0.085783
0.022268
0.153724
-0.093221
0.063095
-0.206658
0.088076
-0.147698
-0.119013
-0.018385
0.142229
-0.064520
-0.091927
0.078118
-0.032086
-0.000324
-0.156420
0.115960
-0.016886
-0.095091
-0.053671
-0.029607
0.037047
0.140567
-0.028873
-0.044681
0.023230
-0.029620
0.047781
-0.133057
0.030218
0.001005
-0.137246
-0.136087
-0.032346
-0.093477
-0.114536
-0.058881
0.069821
-0.118730
0.056297
0.204543
0.106072
0.091250
0.140289
0.147446
-0.078184
-0.084371
-0.025640
0.079710
0.147636
0.150709
0.046170
0.139326
0.015267
0.016418
0.012050
0.044636
-0.175388
0.000565
0.111726
0.091877
0.035941
-0.059557
0.074615
0.061085
0.011722
-0.107493
0.181608
0.195852
0.052809
-0.024748
0.051906
0.035817
-0.073776
0.074226
0.171234
0.011236
-0.045326
0.066537
0.078797
0.012873
0.006486
0.101319
0.028678
0.022834
-0.265361
-0.032925
0.188421
0.003971
0.033245
-0.053179
0.047646
-0.021779
0.098353
0.003959
0.195060
-0.089273
-0.007199
0.028284
-0.030105
0.040320
-0.050100
0.019974
-0.040943
0.083959
-0.064463
-0.021351
0.040813
0.101273
0.113338
-0.110652
-0.005480
-0.161701
0.182818
-0.052959
-0.199582
-0.100649
0.030087
-0.038359
-0.180701
0.146472
0.106608
0.058355
-0.032642
0.086662
-0.011237
0.153910
0.046387
0.160157
0.053098
0.049120
-0.085394
0.086928
-0.041275
-0.138614
-0.016772
-0.067443
-0.075011
-0.051239
0.113223
0.001953
0.029770
-0.011459
-0.091774
0.108745
-0.004581
0.177551
0.052518
-0.003643
-0.036208
-0.042183
0.009019
-0.011457
0.189380
0.000948
0.104954
-0.176356
-0.055373
0.135346
0.266110
0.077325
-0.003944
0.074356
-0.055653
-0.064520
-0.103554
0.286523
0.225877
0.002594
0.007652
0.081850
-0.024407
-0.053566
-0.100234
0.050404
0.180618
0.053153
-0.081878
-0.026689
0.031681
0.079707
-0.014079
0.093265
0.015226
0.314822
0.092033
0.147840
0.131271
0.055367
0.162486
-0.005439
0.187959
0.020538
0.029914
0.067509
-0.244703
0.128985
-0.092787
-0.037967
-0.006935
0.084663
-0.218921
-0.007767
0.097550
-0.080790
0.047970
-0.025418
0.087332
-0.108103
-0.069881
-0.201578
-0.005436
0.091423
0.101834
-0.122973
-0.034477
-0.004473
-0.013687
0.073605
-0.016125
0.213690
0.080883
-0.107254
-0.023586
0.050230
-0.057084
-0.090266
-0.215769
-0.106334
0.135587
-0.106424
-0.023445
0.091425
-0.164021
-0.049516
-0.066303
0.022179
0.110292
0.155962
-0.014889
0.020084
0.097625
-0.055013
0.050955
0.038250
-0.142461
-0.012409
-0.008423
-0.022962
0.077733
0.175510
-0.100317
-0.023713
-0.086832
0.068448
0.081573
0.117390
-0.146778
-0.050898
0.122262
0.047529
-0.049997
0.050294
-0.104408
0.005383
0.126341
0.026478
0.113819
0.100686
0.055852
0.012317
-0.000006
-0.026679
0.075546
-0.025928
-0.092373
0.168472
0.010691
0.221684
-0.019199
-0.051178
-0.009652
-0.072348
-0.105625
-0.071364
0.021784
-0.055618
-0.020690
0.017415
-0.016566
0.103743
0.082583
-0.068173
0.073489
-0.091476
0.058785
-0.058320
-0.045935
-0.112225
0.023515
0.007751
-0.137287
0.099161
-0.044919
0.039474
0.017612
0.009508
-0.010255
0.040986
0.034853
-0.143998
0.070331
0.009033
0.011331
0.022520
-0.003419
-0.075589
-0.003991
-0.125096
-0.016039
0.067511
-0.094557
-0.034364
-0.005480
-0.021466
-0.127543
-0.084079
0.042917
0.053386
0.009254
0.149689
-0.058113
0.011629
-0.090714
0.144641
0.138640
-0.015784
-0.125152
-0.082215
0.079916
-0.002577
0.033881
0.133237
0.024430
0.004323
-0.079233
-0.028275
-0.092426
0.013819
-0.137522
0.013325
-0.080833
-0.175214
-0.087234
0.049044
-0.110140
-0.190460
-0.046180
-0.042541
-0.059290
0.139578
0.055620
-0.082429
0.157499
0.173964
-0.106627
0.061114
-0.023779
0.078617
-0.032274
0.002329
0.046993
0.420385
0.330349
-0.043896
-0.025492
0.063794
-0.098901
-0.102724
0.024131
0.088432
0.151422
0.464091
0.130369
0.080127
-0.109571
-0.006776
0.095824
0.096992
-0.297736
-0.277849
0.089110
0.144939
-0.082912
-0.133761
-0.083512
-0.001049
-0.012392
-0.018481
-0.151815
-0.048757
-0.087545
0.093672
-0.035510
-0.019979
-0.056623
-0.049395
-0.109107
-0.340336
0.070119
-0.032597
0.043445
-0.002038
-0.076819
-0.077372
-0.135313
-0.046722
-0.186204
0.085239
0.028442
0.016473
-0.068293
-0.006721
-0.116555
-0.011367
-0.136099
-0.304407
0.005390
0.031999
0.049716
-0.101710
-0.040869
0.059396
0.027812
-0.018026
0.111073
-0.011463
0.038577
0.134730
-0.009354
0.008703
-0.056079
-0.110634
-0.074978
0.312309
0.331165
-0.185938
0.010293
0.009693
0.039658
-0.245769
-0.084696
-0.023745
0.264974
0.184183
-0.129502
-0.043869
0.022354
-0.153416
0.067342
-0.036924
0.025566
0.040715
0.042983
0.135217
-0.025915
0.015612
-0.021861
0.063317
0.044699
0.177631
-0.243138
-0.035019
-0.176647
0.160862
0.137590
0.026337
-0.054864
0.105909
0.016885
0.166546
0.057538
0.003890
-0.076029
0.165778
0.043729
0.093356
0.054115
0.009117
-0.000836
0.036487
0.012689
-0.253443
0.172880
-0.022755
0.087940
-0.135424
-0.024197
0.015179
-0.208807
-0.086212
-0.078779
0.043017
-0.039791
0.060328
-0.092090
0.012633
0.042166
0.128032
0.136659
-0.099071
0.140158
0.025984
-0.052398
0.042549
0.103156
-0.032761
-0.021286
-0.132642
-0.003584
0.051097
-0.126570
0.004701
0.089560
0.074746
-0.042975
-0.011852
-0.174248
0.010282
0.020205
-0.102467
-0.121342
0.040650
-0.054024
-0.000612
0.088495
0.153714
0.091301
0.114187
0.042376
-0.044858
-0.054155
0.031351
-0.130827
0.063194
-0.172444
-0.144121
-0.141534
-0.201928
0.037486
-0.021915
-0.132491
-0.179274
0.015045
-0.058783
-0.005294
-0.015626
-0.067117
0.151510
-0.005241
0.122784
0.054897
0.187233
-0.119364
0.027297
0.022792
0.046305
0.003355
0.059717
0.020215
0.065928
0.101304
-0.080349
-0.051095
0.032333
-0.003549
-0.027913
0.097407
-0.020703
-0.131174
-0.109628
0.091929
0.054134
0.179827
-0.029643
0.068893
-0.115832
0.034393
-0.039784
-0.181702
-0.155437
-0.043288
0.058471
-0.015901
0.010211
-0.039201
-0.053644
-0.280398
0.300593
0.114990
-0.028098
0.023634
0.110103
0.063659
-0.054872
0.074047
0.088645
0.041982
0.201931
-0.175184
-0.061893
0.150271
0.025987
0.037474
0.160661
-0.015988
-0.196289
0.045490
-0.122307
0.026640
0.029896
0.035362
-0.133930
0.019872
-0.051855
-0.047790
0.058438
0.099916
-0.173781
0.008778
-0.069753
0.138211
0.145607
0.110768
0.188309
-0.092069
0.045514
-0.032371
0.113506
0.354169
0.087296
-0.228233
-0.078125
-0.044900
-0.030014
0.339766
0.080383
0.075876
-0.018688
-0.077862
0.048629
0.303820
0.176191
-0.255686
-0.038715
0.161620
-0.011785
0.216239
-0.054241
0.024530
-0.156000
-0.141576
0.042946
0.164932
0.161345
-0.038321
-0.032288
-0.125147
0.108750
0.131095
0.070815
-0.132622
-0.118680
0.033240
-0.173033
-0.027811
0.079959
-0.003624
-0.048080
-0.059569
-0.004451
0.042249
-0.113679
0.067507
0.152324
0.015927
0.095344
-0.092200
0.085627
0.020270
-0.096997
-0.030719
0.002947
-0.094819
-0.076558
0.107503
-0.096336
-0.155419
0.084017
0.003323
-0.051021
-0.071588
-0.093488
-0.046545
0.106746
-0.040513
0.122124
-0.071067
0.102828
-0.162065
0.028628
-0.030771
0.101614
0.079607
0.106594
0.010563
0.022354
0.067582
-0.005826
-0.011439
-0.130538
-0.020697
-0.076920
0.094543
0.128165
-0.012064
0.022629
0.010463
0.077068
-0.156548
0.060222
0.033404
-0.108361
-0.068489
-0.049490
-0.025555
-0.001023
-0.202028
-0.159768
0.043294
0.010193
0.110288
0.054575
0.056001
0.068286
0.082159
0.023853
0.039647
0.046048
-0.020011
-0.130486
-0.099776
-0.040815
-0.043125
-0.077446
-0.083694
0.074735
0.001083
0.079782
0.038620
-0.148735
-0.025353
-0.063890
-0.099603
0.119457
0.041973
-0.346590
-0.006524
-0.015950
-0.247156
0.075696
0.036127
0.010613
0.133230
0.378951
-0.052910
-0.243492
-0.176330
-0.072068
-0.007935
0.051667
-0.020576
0.068170
0.076934
0.054214
-0.215728
0.046168
-0.097387
0.093135
-0.011059
-0.195810
0.095065
0.038547
-0.172810
0.107411
0.032882
-0.095476
-0.113062
-0.137673
-0.132454
-0.107476
0.181369
0.106006
0.080753
-0.002025
-0.039164
-0.052832
0.081374
-0.084585
0.279981
-0.253875
-0.051698
-0.112236
-0.043700
-0.026790
-0.000889
-0.024644
-0.104538
-0.148518
-0.018025
0.004345
-0.023599
-0.050531
0.079223
-0.050033
0.091761
-0.010532
0.022984
-0.190263
-0.128060
-0.188391
-0.151589
0.021686
-0.069745
0.099048
-0.045115
-0.019656
-0.231485
0.120486
0.068095
0.050029
-0.062013
0.013812
0.029360
0.192577
-0.237902
-0.006673
0.070644
-0.012263
0.036096
-0.073819
-0.050140
-0.001957
0.073940
-0.005191
0.005081
0.095058
-0.108877
-0.100160
-0.094816
0.019797
-0.150886
0.053161
0.016659
-0.225562
-0.122633
-0.324127
-0.074349
-0.064555
0.030782
0.045488
0.022863
-0.051480
-0.058633
0.102921
0.087098
0.152155
0.175907
0.054556
0.134547
0.040270
0.082755
0.102528
0.048945
-0.035957
-0.020192
0.017346
-0.077588
0.071778
0.150061
0.049631
0.131115
-0.060174
-0.109037
-0.175896
-0.179435
0.013778
-0.126131
-0.054229
0.136412
0.055597
-0.128686
-0.031025
-0.008041
0.019356
0.068241
-0.029888
0.107530
0.141763
-0.097345
0.100529
0.082765
-0.176166
0.033920
-0.066883
-0.033808
-0.017841
0.090643
-0.132517
-0.055674
0.092988
-0.076838
-0.062395
-0.083827
-0.025458
-0.046060
-0.032716
-0.000935
-0.028255
0.042769
-0.034968
0.075281
-0.036460
-0.007746
-0.004407
-0.004079
0.226500
0.077120
0.034010
-0.126929
-0.002997
0.115695
-0.047848
0.022575
0.031126
0.167510
0.002395
0.087455
-0.024895
-0.200218
-0.115483
0.001692
-0.024699
-0.094125
0.008825
0.049326
0.225366
0.070971
0.009854
-0.176086
-0.048370
0.041510
0.069194
-0.042824
0.061626
0.132214
0.269026
0.214171
-0.103613
-0.152003
-0.049547
0.099177
-0.050475
-0.014745
-0.046212
-0.010757
0.024327
-0.046814
-0.147410
0.012192
0.055979
0.085853
0.101629
0.056874
-0.087295
0.030104
0.043384
-0.046499
0.013165
-0.033538
-0.094301
-0.067817
-0.062777
-0.041029
-0.102919
-0.082515
-0.068262
0.090619
0.018532
-0.069757
-0.168019
-0.011551
-0.123338
0.216238
0.048151
-0.073360
-0.086921
-0.079541
0.133058
-0.165257
-0.070600
-0.159880
0.120744
0.082686
0.007728
0.134726
0.042179
-0.066574
0.087596
0.009243
-0.034827
0.106720
0.056403
-0.191899
0.024836
-0.006395
0.106759
-0.077737
-0.056463
-0.029863
-0.117280
0.063536
0.053937
-0.022570
-0.044703
-0.065868
-0.051194
-0.034937
-0.342694
-0.240894
0.014233
-0.093134
-0.147180
-0.115158
-0.113156
0.090781
0.154027
0.168594
-0.101265
-0.152842
-0.091298
0.073977
-0.095102
-0.089602
-0.066983
0.237032
0.066590
0.193950
0.162237
0.046468
0.108032
-0.061955
0.113675
0.077607
0.137026
0.067533
0.006023
0.133310
-0.094121
-0.035741
0.060379
0.023313
-0.037820
-0.100484
0.040347
-0.104825
-0.069640
-0.087250
0.015173
0.039337
-0.045298
0.021237
0.078288
0.003915
0.076048
-0.047828
0.023018
0.082915
0.001523
0.088582
0.012973
0.006403
0.043522
0.028104
0.161196
-0.008027
-0.043103
-0.001935
-0.008356
0.022334
0.105299
0.079203
0.057194
0.065731
0.097668
-0.013896
0.038590
-0.089613
0.002922
0.092355
-0.097689
0.085811
-0.044403
0.040521
-0.034474
-0.062492
-0.093728
0.017486
0.003890
0.054333
0.155695
0.075380
0.077131
-0.096460
0.007467
-0.004765
0.029641
-0.001161
0.170253
0.066309
0.107365
0.109597
0.048076
0.090822
-0.020505
0.027966
0.073205
-0.046622
0.007823
0.018884
0.085392
0.092000
0.068077
0.090378
0.075410
0.024739
0.014184
-0.085320
-0.090359
-0.048865
-0.067026
0.020437
0.054456
0.024607
0.062094
-0.016397
0.013282
-0.058340
-0.005404
0.100162
0.051759
0.014672
0.089535
0.038372
-0.170686
0.052962
-0.025998
-0.112823
-0.048250
0.117126
0.043338
0.125701
-0.028953
-0.074039
0.019504
0.023100
-0.106982
0.012217
0.037884
0.010174
0.201362
0.320498
0.172389
0.043833
0.003364
0.197025
0.303577
0.284723
-0.207741
-0.023173
-0.054566
-0.046239
-0.157934
-0.002693
0.076171
0.113310
-0.196648
-0.049870
0.110867
0.111526
0.072697
-0.037579
0.188974
0.029799
0.115409
-0.105865
-0.062013
0.112903
-0.036932
0.132799
-0.083133
-0.006774
0.008484
0.049631
-0.057241
0.072761
-0.159403
-0.134175
-0.031876
0.147378
0.116239
-0.032511
0.004134
-0.188022
0.005891
-0.106176
-0.030286
0.020124
-0.092746
0.055832
-0.116770
0.039734
-0.084918
0.057079
-0.074057
-0.039662
-0.158624
-0.258256
-0.003655
0.079437
-0.204475
0.006006
0.042454
-0.016660
0.078776
0.130600
-0.089690
-0.155295
0.031888
-0.023936
0.108932
0.054312
0.069588
0.007433
-0.064182
0.094211
0.061204
-0.036682
0.092439
0.142575
-0.073404
0.177757
0.204268
0.052190
-0.096126
0.098276
0.117513
0.115284
0.016710
0.063242
0.060935
0.162755
0.077060
0.071129
-0.033745
0.162727
0.070577
-0.123963
0.163625
0.025016
-0.130495
-0.033628
-0.114711
-0.103228
0.002296
-0.005038
0.050218
-0.061663
0.040617
-0.010528
-0.087004
-0.201038
-0.046371
-0.347601
-0.125248
-0.120666
0.047268
-0.082502
-0.027604
-0.063846
-0.085502
0.018821
-0.071056
0.080184
-0.065708
0.024383
0.035637
-0.035331
0.061362
0.093238
-0.076436
0.015841
0.089099
-0.017450
-0.056945
0.011734
-0.139652
-0.111325
-0.136299
0.021051
0.017541
-0.173618
-0.059491
0.167037
-0.039911
-0.010443
0.146853
0.067529
0.122646
-0.052446
-0.094303
-0.098793
0.021358
0.001180
0.083311
-0.021103
0.039722
-0.045829
-0.027125
-0.043334
-0.056569
-0.011227
0.133542
-0.068395
-0.030307
0.207714
0.005180
0.096155
-0.058425
0.149289
0.006553
0.008692
-0.027871
0.032925
0.114840
0.065322
-0.004396
-0.116365
0.060048
-0.129799
-0.081633
-0.217021
-0.190920
-0.198517
-0.082080
-0.104708
-0.071972
-0.031595
-0.012548
-0.066436
-0.237007
-0.110559
0.029604
-0.051165
0.131439
-0.074093
0.029864
0.079680
0.136061
0.025819
0.100109
0.090346
-0.181940
-0.064124
0.075415
-0.004234
0.034191
-0.022072
-0.028908
-0.118925
0.113814
-0.154501
0.078657
0.068649
-0.064473
-0.071290
-0.035002
0.031171
-0.020597
-0.041808
-0.223745
-0.001522
-0.122205
-0.039032
0.111292
-0.048619
0.015113
-0.069269
-0.030721
-0.133161
-0.008388
0.031097
-0.147300
-0.061794
-0.097881
0.106522
0.006668
-0.100313
-0.247026
-0.021952
-0.063211
-0.050551
-0.034858
-0.131555
-0.006128
-0.042228
-0.013237
0.049663
-0.044538
-0.108835
-0.097269
0.063880
0.127015
0.111699
-0.178608
0.022794
0.092753
0.085778
0.081863
0.076258
0.004672
-0.185647
0.062480
0.232629
0.061586
-0.061697
0.218693
-0.068942
0.175299
0.025636
0.076337
0.010279
-0.050185
0.142562
0.032694
-0.008539
0.168391
0.146238
0.063377
0.096913
-0.059135
-0.007120
-0.020832
-0.062521
0.130313
-0.092167
0.038498
0.110854
-0.075370
0.055200
-0.082748
0.154198
0.062352
-0.131919
0.044182
0.064222
-0.110556
0.070504
-0.014887
0.046816
0.039028
-0.105752
0.194020
0.012408
-0.052148
-0.008255
0.131084
-0.021873
-0.102550
-0.027032
0.184210
0.066532
-0.105211
0.191871
0.065760
0.046229
0.113179
-0.105833
-0.044635
0.021759
-0.069990
0.037989
0.132952
0.096938
-0.030776
-0.001807
0.035755
-0.022347
-0.029748
-0.025064
-0.045245
-0.056715
0.041464
0.002277
-0.055478
-0.030718
-0.064329
-0.015118
0.058932
0.069895
-0.075918
0.025947
0.005713
-0.068557
-0.071211
-0.127146
-0.004908
0.020098
0.008277
0.127986
0.002540
-0.012949
-0.011042
-0.102662
0.040082
0.006154
0.115383
0.021158
-0.025041
0.030253
-0.000902
-0.028532
-0.005459
0.089462
-0.041536
-0.000980
0.011778
0.075871
-0.072158
0.000313
-0.022155
-0.066302
0.023680
-0.132612
0.085024
-0.075588
0.059205
-0.060171
-0.032210
-0.018724
0.079771
0.047689
0.006394
0.008671
0.071374
0.092201
-0.111267
0.053540
0.150906
-0.084181
0.112505
-0.131487
0.016272
-0.004336
-0.060837
-0.110027
0.004529
0.080708
-0.063174
-0.164564
0.044844
-0.065283
0.011757
-0.048476
-0.305807
0.247877
0.248667
-0.091954
0.022436
0.006374
0.046474
-0.171335
0.065114
0.007264
0.186256
0.001646
0.168795
0.074747
0.004205
-0.024534
0.112292
0.135442
-0.202399
-0.278429
-0.065168
-0.055881
-0.084845
-0.019992
0.010448
0.034930
-0.045631
-0.126944
-0.143825
-0.104041
0.039865
0.109349
-0.015103
0.101901
0.001495
0.064035
0.110989
0.103445
-0.299234
0.085695
0.065508
-0.006908
0.036815
-0.066457
-0.040149
0.290174
-0.131251
-0.302387
0.000238
-0.006819
0.023679
-0.010274
-0.000151
-0.021798
0.245508
-0.236277
-0.258148
0.110540
0.116701
0.059225
0.014193
0.069901
-0.024315
0.081894
0.109780
-0.000261
0.023055
-0.116207
0.194452
-0.114776
0.060674
0.034877
0.057862
-0.000066
0.117423
0.085107
-0.002461
0.017092
0.090962
-0.045263
-0.061003
-0.094182
0.053973
0.239385
0.144008
-0.070906
0.033227
-0.000786
-0.072265
0.070261
-0.040270
0.160051
0.189299
-0.075820
0.081297
0.192814
0.035432
-0.023055
-0.064367
0.104066
0.234570
-0.096652
0.020261
0.084301
-0.150815
-0.017580
-0.045613
-0.100635
-0.075007
-0.044642
-0.133976
-0.041446
-0.095862
-0.051126
0.000989
0.134136
0.086454
0.038870
0.051670
0.074547
0.079089
-0.050872
0.072345
0.030454
-0.070140
0.070779
-0.022665
-0.013644
-0.005785
-0.024462
-0.063410
-0.022789
0.066927
-0.004639
-0.032927
0.156144
0.038540
0.067598
0.058672
0.040566
0.042251
-0.061603
-0.009861
0.047407
0.105703
0.030641
0.066814
0.288791
0.076561
-0.098070
-0.153867
0.010004
-0.038542
0.134169
-0.043259
-0.092983
0.109676
-0.145008
-0.262291
-0.069412
0.109824
-0.032035
0.086950
0.037900
-0.020987
0.032426
-0.001238
-0.152016
-0.130381
-0.066423
0.045093
-0.059884
-0.148466
-0.012377
-0.010994
-0.014236
-0.045377
0.076347
0.027973
-0.029217
-0.027181
-0.079707
-0.091049
-0.067641
0.073369
-0.139571
-0.023227
-0.021657
-0.049567
0.011221
-0.019693
0.131708
0.065588
0.119156
0.014585
-0.100067
0.082413
-0.014195
-0.034158
0.039131
-0.021697
-0.059037
0.013707
-0.016562
-0.070706
0.046527
-0.023417
-0.014264
-0.056477
0.010281
0.018626
-0.011441
-0.052465
0.058099
-0.004647
-0.063239
-0.014277
-0.078724
-0.016244
0.048624
0.149009
-0.072192
0.034930
0.134987
-0.054426
-0.180908
-0.056001
0.076153
0.030412
0.095675
0.091492
-0.022980
-0.022395
0.022048
-0.153821
-0.090208
0.009135
0.101544
0.233707
-0.053340
-0.290676
0.098686
-0.063415
0.070881
0.082954
-0.094862
-0.151495
-0.155941
-0.075528
-0.057261
-0.022683
-0.005489
0.021668
0.115443
0.030830
-0.173652
0.006107
0.052498
0.015888
0.065597
0.047805
-0.039523
0.014348
0.082762
-0.260178
0.063439
-0.011596
-0.079123
-0.056450
-0.081533
0.232200
-0.068523
-0.202813
-0.161459
0.139170
0.225254
0.041756
-0.044870
0.064222
0.023144
0.099316
-0.159495
-0.304564
-0.109519
0.101932
-0.134107
0.073753
-0.123911
0.139907
-0.028464
-0.090914
-0.078265
0.086329
0.057291
0.047625
0.024103
0.019044
0.094419
-0.022369
-0.244272
-0.193841
0.029926
-0.006963
0.117819
0.096467
0.037216
-0.031017
-0.015358
-0.008866
-0.006125
-0.161223
-0.016642
-0.032931
-0.035189
-0.069470
-0.109720
-0.136828
-0.010548
-0.082378
0.069567
-0.132182
0.062483
-0.098303
0.100247
-0.172883
-0.096957
-0.011862
-0.012483
0.137229
0.116360
0.033306
-0.035911
0.027002
-0.014389
-0.031567
-0.207976
-0.191269
-0.052105
-0.151662
0.058597
0.149378
0.090818
0.034680
0.009688
0.018386
0.182156
0.004359
-0.089873
-0.061014
0.121534
-0.068880
-0.147657
0.076586
-0.138182
0.035616
0.004930
-0.147550
-0.188868
-0.040241
-0.069451
-0.018829
-0.041040
-0.146115
-0.098106
-0.097458
-0.194204
0.037387
-0.119128
-0.130379
-0.008410
-0.009452
-0.103938
-0.068057
-0.018504
0.025110
-0.129534
-0.175181
0.013430
0.006492
-0.061959
0.079478
0.158139
0.069265
-0.026481
0.091527
-0.042114
-0.092474
-0.039348
-0.054582
-0.048314
0.038296
0.199294
0.141842
-0.012077
0.025380
-0.012614
0.011609
-0.042196
0.038119
0.153370
0.042058
0.065531
0.201309
0.066127
-0.041721
0.107168
0.114968
-0.148940
0.039635
-0.006139
0.190822
-0.023940
0.083323
0.055838
-0.117800
-0.088500
0.011443
-0.092786
-0.047993
0.121264
0.147331
-0.075435
0.093985
0.039718
-0.106351
0.106536
0.024304
0.050222
0.075655
-0.027357
0.084267
0.103795
0.055072
-0.047548
0.062338
0.055445
-0.027416
0.049405
-0.021896
-0.106275
-0.128384
0.018464
-0.050558
-0.024851
0.025228
0.090254
0.054368
0.018373
0.023074
0.110585
0.147203
0.079047
-0.030558
-0.043992
0.036594
0.040991
0.137484
0.088659
-0.017658
0.031613
-0.018468
0.054429
0.007324
0.073571
-0.107042
-0.067708
-0.047530
0.048257
0.015360
0.079687
0.059971
0.040593
0.042987
0.080341
-0.028523
-0.066458
-0.010679
-0.009144
0.165625
-0.059100
-0.069104
-0.061407
-0.069288
0.027217
-0.083378
-0.190346
-0.062238
0.038259
0.113485
0.135169
-0.077993
-0.066298
-0.089105
-0.069098
0.044582
0.006745
0.003349
0.001316
0.044381
0.028731
-0.096632
-0.064103
0.004010
-0.090081
0.074542
-0.127809
-0.001743
0.121110
0.044544
-0.066904
-0.108085
-0.047936
-0.119716
0.045188
-0.015585
0.026369
0.005940
0.081757
-0.041245
0.065983
-0.052380
-0.072106
0.002331
-0.037607
0.060234
0.048793
-0.007601
0.029225
0.081491
0.077733
-0.025018
-0.085654
-0.131929
-0.031001
-0.104980
0.000571
0.024733
0.067488
0.063620
-0.077671
-0.037135
-0.092659
-0.136661
-0.185119
0.021756
-0.028983
0.016105
0.020225
0.199109
-0.069029
-0.001289
-0.113263
0.052512
-0.075445
0.077544
-0.012539
-0.075059
-0.088900
-0.044854
-0.072378
-0.007830
-0.004028
-0.242695
0.052909
-0.013865
-0.259126
-0.158829
-0.068551
-0.109640
-0.166409
-0.001525
-0.026702
-0.009864
-0.140522
-0.155257
-0.316383
0.005031
-0.125526
-0.007106
-0.030258
-0.098918
-0.019195
0.086289
0.170358
-0.025537
-0.050785
-0.196827
0.020783
-0.090565
-0.049238
-0.029555
0.067549
-0.072113
0.112223
-0.000300
0.144110
-0.006078
-0.018549
0.065700
0.132025
0.103843
0.016024
0.093407
-0.052215
-0.066513
0.055842
-0.128241
0.088976
0.051470
0.092323
0.167263
0.058814
-0.209304
0.126438
-0.013736
0.132259
-0.167819
-0.068739
0.038626
0.052878
0.032792
-0.053905
-0.002016
0.002240
0.030629
0.053741
0.046248
-0.064757
0.202557
0.082818
-0.053791
0.080212
0.091327
-0.098353
-0.094164
-0.059939
-0.090741
-0.033858
-0.069996
0.132962
-0.081995
-0.012942
0.099992
0.084005
0.076904
0.067076
-0.018366
0.147921
0.001777
-0.033115
0.173599
0.130603
-0.065817
0.062604
0.058427
0.041638
0.093382
0.130001
0.128756
0.013004
0.079823
0.147998
-0.065692
0.198937
0.106258
0.080694
0.074942
-0.021480
0.141665
0.093898
0.108172
0.074134
0.112568
0.124852
-0.051180
0.007387
0.105829
-0.049693
0.050746
-0.004892
-0.020746
0.024004
-0.023481
0.142964
-0.149425
0.131412
-0.090656
0.026613
0.098091
0.089397
0.070903
0.038607
-0.167059
0.063779
0.070896
-0.027248
0.042047
-0.095052
0.070078
-0.145109
-0.096401
0.176406
-0.071502
0.017209
-0.016665
0.088473
-0.139316
-0.002600
0.105606
-0.123720
-0.091778
0.059012
-0.003554
-0.132338
-0.096921
-0.004847
0.074533
-0.147920
0.107084
-0.026813
0.076491
-0.057813
-0.037462
0.028857
0.027362
-0.112689
-0.042839
-0.044988
-0.094836
0.004359
0.077184
-0.019210
-0.128607
-0.009202
0.028779
-0.017803
-0.061895
0.143507
-0.034414
0.099161
0.049652
0.003374
-0.019928
-0.006511
-0.085217
-0.003191
-0.125993
-0.041352
-0.045917
-0.072164
-0.165005
-0.019548
-0.191877
0.034295
0.070029
0.115842
0.058996
0.018881
0.060183
0.057320
-0.008298
0.014007
-0.036914
0.073627
0.041522
-0.168844
0.069548
0.063006
-0.076801
0.010776
0.058493
-0.018288
0.083951
0.007768
-0.148305
0.060823
0.039829
-0.134822
-0.050846
-0.101821
0.179746
0.023112
0.024980
0.116366
-0.022356
-0.050545
-0.111483
0.041836
-0.068771
-0.054292
-0.078694
-0.010462
-0.213793
-0.145355
-0.156117
0.001162
-0.077757
-0.148508
0.013316
0.061212
0.055024
-0.130438
0.173729
-0.205267
-0.152233
0.003556
0.053154
0.035687
-0.108355
0.040076
-0.056347
0.073131
-0.035546
0.128932
-0.066575
-0.024701
-0.135632
0.091560
-0.033187
-0.022806
0.007181
-0.034895
0.067434
0.180895
0.094907
-0.030991
-0.051883
0.017354
-0.034307
0.110071
-0.079910
0.045113
0.135635
0.116698
-0.090074
0.193106
0.066137
0.073690
0.232269
0.085536
0.021982
-0.028305
0.204303
-0.014851
0.078204
0.038248
-0.105216
-0.050492
0.071535
0.023443
0.155321
0.097340
0.077679
-0.014339
0.019929
-0.109840
0.088805
-0.114834
0.098702
0.056381
-0.031916
0.200691
-0.184001
-0.066535
-0.129236
-0.102322
-0.105234
0.018902
0.095551
-0.084839
0.183292
0.020281
-0.169888
-0.181244
-0.033213
-0.038214
-0.088227
-0.028849
-0.005776
0.000910
0.050902
-0.017030
0.112949
0.042253
0.072870
0.049705
-0.045083
0.027146
-0.029729
0.028474
0.092784
0.092516
0.030066
0.009733
-0.080744
-0.160117
-0.034775
-0.033356
0.052084
-0.019486
0.101790
-0.143525
-0.058958
-0.057612
-0.200632
0.050641
-0.045189
0.036461
-0.058811
-0.081173
-0.054177
0.017168
-0.035952
-0.102061
0.086747
0.174192
-0.055176
0.295010
-0.121554
0.083746
-0.004937
0.049190
-0.027087
0.065625
-0.035432
-0.035006
-0.033839
0.254057
0.074005
-0.075611
0.121291
0.026949
0.014072
0.008217
-0.190173
0.076424
0.018122
-0.115937
-0.016833
0.226516
-0.034876
-0.059882
0.143898
-0.014170
0.224731
-0.137172
-0.035413
-0.036129
0.009518
0.122529
0.006456
-0.013773
-0.129581
0.283680
-0.112464
0.132693
0.005338
0.059906
0.040989
0.027823
0.219255
-0.059584
0.108196
0.121212
0.105505
0.028597
-0.007472
0.056309
0.121235
0.117703
-0.144984
0.238645
0.000530
-0.031229
-0.062377
0.000058
0.007908
0.016516
-0.095219
-0.015911
0.042082
-0.004100
-0.040429
-0.044433
-0.147864
0.017894
-0.077446
-0.165723
-0.038573
0.120650
0.067634
0.045834
0.122895
-0.032802
0.105066
0.061050
-0.063722
-0.035083
0.043705
0.071328
0.036152
-0.032112
-0.003140
0.080775
-0.026287
0.034529
-0.085581
-0.160573
0.077668
-0.047911
0.082566
0.139098
-0.034291
-0.029771
0.035486
0.020663
0.050242
-0.147131
-0.008574
0.143559
0.095125
0.001343
0.091617
0.139410
-0.202022
0.134045
0.072514
0.284506
-0.221270
-0.213478
-0.008847
-0.013309
-0.096916
0.112138
-0.011942
-0.079254
0.048304
0.079233
0.146740
-0.124808
-0.108067
-0.077374
-0.193701
-0.128608
0.049262
-0.042797
0.019487
-0.032173
-0.011765
-0.002564
0.086432
-0.075985
-0.094358
-0.042843
-0.103643
0.044162
0.047123
0.046403
-0.048517
0.026687
-0.186111
-0.095438
-0.111771
0.009162
-0.104227
-0.005887
-0.077359
0.011167
-0.048581
-0.094848
0.030818
-0.024133
-0.017728
0.010747
0.054634
0.050243
0.010291
-0.000591
-0.045871
-0.034615
-0.129079
-0.014491
-0.043974
0.150752
-0.023530
-0.000273
-0.068836
-0.026195
-0.046333
0.051559
-0.091256
-0.056511
0.002740
-0.011959
-0.077573
-0.031254
-0.074170
0.079864
-0.029500
0.021245
0.098290
0.001545
0.067461
0.067095
-0.043182
-0.007902
-0.053759
-0.052916
0.051621
0.001369
0.046578
0.053623
-0.008804
-0.055045
0.018334
-0.103415
-0.096423
-0.051744
-0.101542
-0.016683
-0.110744
0.029831
-0.048248
-0.038877
0.008108
0.087171
0.042277
-0.006759
-0.092433
0.049165
-0.064646
0.017369
0.049485
-0.110375
0.149051
-0.029935
0.072742
-0.080722
-0.078272
0.108340
-0.107242
-0.107041
0.048270
0.066347
-0.020032
0.044091
-0.020147
0.152044
-0.122499
-0.041996
-0.001896
0.007994
-0.157640
-0.078870
0.028063
0.033199
0.087249
-0.001574
0.018918
0.005059
-0.337182
0.165749
0.025269
-0.087143
0.042684
0.014039
-0.169405
0.181390
0.080006
-0.117974
-0.481374
-0.264588
0.067761
-0.222628
0.083176
-0.064692
0.045491
-0.182836
0.067355
-0.068300
-0.092883
-0.318653
-0.161015
-0.104886
0.113999
0.168814
0.034980
-0.055648
-0.079587
0.076591
-0.086532
0.104181
-0.035488
0.113490
0.145138
-0.066058
-0.018177
0.098963
0.087621
0.067198
0.088532
0.143712
0.487602
0.282800
0.124792
-0.081639
-0.104908
0.188017
-0.030238
0.051349
0.091212
-0.016118
-0.015206
0.221878
0.115606
0.147976
0.129330
0.103602
0.001306
0.014923
-0.133911
0.047023
0.080841
-0.131718
0.021761
0.211427
0.058871
0.065257
-0.136875
-0.001127
0.064854
-0.034609
0.089122
0.129457
0.043995
0.283078
0.161740
0.102165
0.113151
-0.032844
0.224245
-0.061294
0.046594
-0.148605
0.031805
0.081950
-0.075883
0.187866
0.160884
0.060070
-0.087146
0.004300
0.128281
0.010395
-0.034454
0.085489
-0.016835
0.109478
-0.001072
0.000826
0.033896
0.021528
-0.033670
0.050510
0.042086
-0.031852
0.041483
0.024322
0.042630
0.261727
0.230099
0.111044
0.064976
0.205043
0.004527
-0.027694
0.074305
0.033560
-0.087579
-0.107047
0.009599
0.058860
-0.183703
-0.054944
0.027818
0.137445
-0.053338
-0.050883
-0.061886
-0.071418
0.007847
0.011699
0.151685
0.055454
-0.053352
0.161497
0.152006
-0.083993
0.069128
0.168302
-0.088455
0.030969
0.062790
0.130339
0.125392
0.116468
0.053158
0.037722
-0.197081
-0.043892
-0.117844
-0.148315
-0.018107
0.008049
0.063860
-0.096496
0.090186
0.023705
0.068332
0.031345
0.008602
0.151577
0.086316
-0.035903
0.051775
0.141408
0.043423
0.042577
0.073853
-0.194283
-0.109600
-0.043637
-0.134577
-0.256461
-0.230443
-0.124651
-0.035541
-0.175700
-0.178770
0.229288
0.033403
-0.003633
-0.104661
0.085195
0.007030
-0.014018
0.020922
-0.013409
-0.040234
-0.500677
-0.057702
-0.068479
-0.113561
-0.100382
0.070341
-0.011798
0.058897
0.050693
0.197910
0.086303
-0.142528
0.087349
-0.098383
-0.017976
-0.055903
-0.069034
-0.045812
-0.159252
-0.087531
-0.003097
-0.015101
-0.117107
-0.020308
-0.096185
0.045634
-0.107864
0.032265
-0.039548
0.017567
-0.146564
-0.053612
0.016774
-0.167887
-0.007990
-0.135823
-0.062715
-0.102209
0.017985
-0.081114
-0.097821
-0.149273
-0.010321
0.030372
-0.276139
0.024631
0.043549
-0.064840
0.003563
-0.006547
0.042005
-0.092212
0.190148
-0.017480
0.137775
0.075648
-0.019204
-0.064651
-0.016540
-0.087081
0.037210
0.047977
0.013169
0.062811
0.054244
0.062050
-0.129134
-0.023958
0.009512
-0.009420
0.067781
0.047159
0.075874
-0.064690
0.022610
-0.066208
0.075638
-0.040387
-0.038929
0.036802
0.074348
0.024559
-0.013862
0.131511
0.257949
-0.215535
0.016984
0.052944
-0.078354
0.026525
-0.045921
0.044413
-0.005312
0.082329
-0.173204
0.309502
-0.069207
-0.058361
-0.097251
-0.157978
-0.043131
0.054283
0.000700
0.024464
0.229362
0.061496
0.170343
0.127140
0.090326
-0.017162
0.083439
-0.086731
0.079764
0.053350
0.015668
0.100659
0.005807
-0.055153
-0.135215
0.090045
-0.148503
-0.019354
-0.042129
0.095364
0.001720
-0.009070
0.018067
-0.139518
-0.003531
-0.020881
-0.038778
-0.059794
0.007553
-0.117716
-0.015514
-0.008740
0.015106
0.014367
-0.117723
0.075288
-0.056973
-0.014212
-0.138955
-0.037545
0.006768
-0.010686
-0.080776
-0.029723
-0.016947
-0.095930
0.012279
-0.144355
-0.056228
-0.002366
0.005767
-0.070981
0.049856
-0.050435
-0.048314
-0.041482
-0.078707
0.008974
-0.115052
0.155944
-0.140394
0.040758
-0.074595
-0.058216
-0.023678
-0.071232
-0.047340
0.057015
-0.031240
-0.105369
0.017358
0.114612
-0.068261
-0.128491
0.016119
-0.065805
0.139895
0.034812
0.016492
0.063259
-0.037274
0.105962
0.110107
-0.009779
0.027131
0.012196
0.044927
-0.048106
0.146594
-0.127178
-0.049977
-0.068572
-0.047682
-0.115687
-0.099926
-0.073838
0.182727
-0.049092
0.049364
0.106587
-0.073758
0.097456
0.191938
-0.077444
0.024155
-0.146370
-0.095475
0.109501
0.032563
0.022542
0.083389
0.057877
0.052894
-0.046713
0.000422
-0.052254
0.075142
0.033638
-0.041646
0.126681
0.012704
0.085113
0.038740
0.149578
0.222044
0.075044
0.120918
0.096543
0.148486
0.009236
0.029751
0.043070
-0.061145
0.024556
-0.005278
-0.091392
-0.193540
-0.038804
-0.110268
-0.008892
-0.008199
0.061652
-0.040495
0.099516
-0.000843
-0.082887
0.044412
-0.069934
0.011996
0.060039
0.017647
-0.104980
-0.075401
-0.170424
-0.203690
0.155419
0.003093
0.108635
0.027663
-0.008925
0.040127
0.020104
-0.143606
-0.058258
-0.032944
-0.019831
0.107870
-0.012625
0.006679
-0.095950
-0.023655
-0.012971
-0.136338
-0.079936
0.052596
0.029105
0.002341
0.193764
-0.046873
-0.036592
-0.070680
0.003258
-0.037291
-0.114359
-0.055851
0.020946
-0.048788
0.038712
0.065716
0.085571
-0.023679
0.145707
-0.018447
0.048882
-0.009534
0.080780
0.050790
0.023037
0.003894
-0.021299
0.029064
0.011789
0.080969
-0.114996
-0.022664
0.004154
0.104843
0.018009
0.032641
-0.053215
0.088448
0.094305
-0.165135
0.075792
-0.042830
0.068440
0.033402
0.062130
-0.039657
-0.005334
-0.050228
0.078596
-0.042221
-0.083521
0.172915
0.100252
0.140122
0.074451
0.122026
-0.012160
-0.048350
0.133078
-0.020072
0.022593
-0.016337
0.103805
-0.018243
-0.068702
0.004345
0.007038
-0.099148
0.096794
0.063532
0.086262
-0.002070
0.027413
0.021776
-0.038456
0.018705
-0.104267
0.143562
0.075879
-0.157714
-0.013380
0.140683
0.192195
-0.108370
-0.030232
0.002328
0.040264
-0.119138
0.044789
-0.028945
-0.103350
-0.021904
0.046480
0.020298
-0.189334
-0.011264
-0.155735
0.060456
-0.170987
0.002819
0.017657
-0.026822
0.075178
-0.005656
-0.109416
-0.049550
-0.035775
-0.062490
0.051208
-0.047980
-0.022556
-0.026688
0.028474
-0.013958
-0.018287
-0.085429
-0.090949
0.080179
0.011222
0.102474
-0.075576
0.162719
0.018686
0.024486
0.107936
-0.062088
-0.016689
0.200942
0.267977
0.027837
0.020193
-0.032489
0.039810
-0.013392
0.041497
-0.027299
-0.114221
-0.057562
-0.074305
0.104552
0.082882
0.029057
0.111919
0.017165
-0.137367
-0.089524
0.114640
-0.242960
-0.062279
0.014602
-0.019146
-0.103277
0.020017
-0.031536
-0.009627
-0.059017
-0.010000
-0.126023
-0.313939
0.068919
-0.145194
0.007743
-0.120490
-0.005837
-0.041336
-0.057706
-0.042003
-0.005528
0.076606
0.106347
-0.069156
-0.069885
-0.053347
0.155191
0.041639
-0.152411
0.030205
0.048821
0.008386
0.147683
0.063258
0.208499
0.263203
0.096468
-0.172404
-0.172630
0.085296
0.163087
-0.093954
-0.093670
-0.046261
0.008097
0.226273
0.155250
-0.002761
-0.147242
0.039969
-0.055163
0.116690
0.037323
-0.005813
0.155452
0.106640
0.063028
0.240682
0.011796
-0.074677
0.015864
-0.102884
0.050130
0.175908
-0.136249
0.025366
0.017063
0.074033
0.174461
-0.069548
0.042669
-0.148156
0.125148
0.035862
0.096386
-0.066008
0.013934
-0.149741
-0.037004
-0.037326
-0.110183
0.037200
-0.132336
0.133769
-0.026451
0.061290
-0.031535
-0.047899
-0.009647
-0.181474
0.053370
-0.155381
-0.140007
-0.033466
-0.036675
0.197512
-0.010796
0.088753
0.080995
0.027211
0.081089
-0.042899
-0.136209
0.007689
-0.023231
0.142165
-0.119280
0.059954
0.045516
0.116649
0.109604
0.135784
0.111802
-0.040044
-0.047862
-0.117204
-0.088108
0.077054
0.038452
0.088607
0.089436
-0.023902
-0.028568
0.041915
-0.091060
0.063836
0.075268
-0.054261
-0.041654
0.221765
0.083726
0.164451
0.152323
-0.101194
-0.043321
-0.052309
-0.184711
-0.097743
-0.105398
-0.137165
0.098590
0.074926
0.000864
0.096793
0.053171
-0.000904
0.071552
0.045499
-0.157879
-0.175119
0.011936
0.068231
0.094114
-0.134877
-0.037434
0.033371
-0.212448
-0.092871
0.122267
0.195864
0.117174
0.019142
0.036911
-0.005144
-0.121124
-0.053648
0.007323
-0.180951
0.029740
-0.155846
0.039959
0.058560
-0.061562
0.064801
0.127751
-0.044165
0.008049
-0.118834
-0.051902
-0.043351
-0.140507
-0.066466
-0.042477
-0.067244
0.149521
0.005710
0.012851
0.135884
-0.095760
-0.040795
0.144925
-0.037462
-0.169067
-0.204910
0.004998
0.026959
0.057046
0.030208
0.048392
0.064518
0.029920
0.070864
0.045049
-0.178198
-0.162684
-0.060506
0.102228
0.033942
-0.053572
0.066293
0.025818
0.096908
-0.091280
0.171857
-0.059313
-0.162180
-0.039648
-0.020578
0.076032
-0.125103
0.122834
-0.001061
0.104929
0.118790
0.064106
0.146769
-0.180062
-0.121558
0.108706
0.022981
-0.108947
0.146912
0.004257
-0.129637
0.070979
0.059669
-0.059375
0.193424
-0.243362
-0.000960
0.145085
-0.177743
-0.139948
-0.090983
0.203117
0.017629
0.027813
0.002400
-0.002580
-0.052671
-0.101006
0.082010
-0.034287
0.069482
-0.043891
0.146677
-0.045244
-0.230559
-0.264976
0.036814
-0.141513
0.029087
-0.009460
-0.045092
0.238949
0.032256
-0.264137
-0.182930
0.095716
-0.087457
0.071785
-0.091273
0.023286
-0.083305
-0.001314
0.090221
0.148365
-0.082903
-0.105198
0.000773
0.013599
0.187149
-0.092617
0.042118
-0.097240
-0.178971
0.084009
0.123410
-0.122498
-0.024650
0.071733
0.112329
-0.048558
-0.059273
-0.055886
-0.119998
0.077718
-0.048629
0.003220
0.117989
0.020216
0.114908
-0.092094
0.013540
0.036878
-0.082054
-0.067038
0.052136
-0.008629
-0.139565
0.013466
0.088447
0.101794
0.102374
0.083720
0.018324
-0.004452
0.005142
0.002412
0.033562
0.032297
-0.063650
0.059270
0.018808
-0.024730
-0.002336
0.009333
0.157076
0.059572
-0.001391
-0.197114
-0.087351
0.000410
0.087822
0.017885
0.026669
0.088485
-0.001921
-0.035427
-0.013306
0.000788
0.008976
0.085154
-0.008511
0.081746
-0.067932
-0.059791
0.061647
-0.076096
-0.044009
-0.199424
-0.140142
0.095528
0.099179
-0.144813
-0.107003
-0.290772
-0.067607
-0.163364
-0.012866
-0.059566
0.005899
0.000649
0.064760
0.084653
-0.074758
-0.049048
-0.084687
-0.049442
-0.032231
-0.151693
0.041116
0.074860
-0.016081
0.076142
0.139037
-0.004445
-0.053247
-0.132738
0.113275
-0.000536
-0.066922
-0.112757
-0.081970
-0.153994
-0.017349
0.042297
-0.113808
-0.030397
0.049152
0.024366
0.077578
-0.053742
-0.071473
-0.153653
0.151693
0.016543
-0.085539
-0.055575
0.095420
-0.092488
0.130845
0.035950
-0.050256
-0.106692
0.033498
-0.003212
0.209707
-0.104950
0.018930
0.026100
-0.060485
0.147468
0.011883
0.124310
-0.114685
0.107440
0.005061
0.096087
-0.046449
0.052822
0.056553
-0.087566
0.093633
0.046475
-0.026131
-0.054827
-0.113213
-0.110651
0.047123
-0.060985
-0.019915
0.081107
-0.021004
0.001214
0.007650
0.121566
-0.100850
0.050691
-0.001971
0.052550
0.031727
-0.015364
-0.080994
-0.102103
-0.039104
-0.004948
-0.042511
0.034733
0.048638
0.112627
-0.025577
0.140225
0.028817
-0.075216
-0.100853
0.018066
-0.063850
-0.155962
-0.287705
-0.158150
-0.013962
0.223486
0.297146
0.150339
0.044014
-0.168291
0.037281
-0.066877
0.114459
-0.061522
-0.064490
-0.076078
0.074676
-0.025470
0.102624
0.066899
0.156522
-0.089108
0.041989
0.014565
-0.035095
0.073517
-0.112285
0.094161
-0.092261
0.026602
-0.024856
-0.027190
-0.021629
0.016256
-0.049194
0.124768
0.095495
-0.109407
0.064522
0.094727
-0.059679
-0.079773
-0.149128
0.003545
0.014142
0.055869
-0.015184
-0.013451
-0.122434
0.095727
0.008226
-0.160451
-0.045586
-0.036622
0.005037
-0.022857
-0.077010
0.072691
-0.030980
-0.137710
0.091175
-0.139140
-0.186638
-0.059304
0.027308
0.002534
0.036615
-0.018791
0.075134
0.104088
0.100841
-0.018415
-0.132824
-0.117596
-0.050643
-0.006477
0.075748
0.020079
0.028478
0.037149
-0.016238
-0.010937
0.010266
-0.059412
0.069253
-0.066036
0.142665
0.072923
0.040769
-0.015185
-0.113428
0.078308
0.021862
0.000911
-0.100574
0.078592
-0.034152
0.062270
-0.001039
-0.116063
0.072372
0.006842
0.059003
0.055388
-0.024029
-0.130133
0.055698
-0.060995
-0.024895
0.009925
-0.025018
0.004683
0.015542
0.020651
0.075621
-0.040635
0.118774
0.038469
-0.048309
-0.018017
-0.005725
-0.013848
0.052023
0.003032
-0.032987
-0.029731
0.022666
-0.107802
-0.015932
0.014525
-0.096161
-0.028818
-0.010827
0.066297
-0.014410
0.012163
-0.067807
0.018214
0.026261
-0.007513
0.033968
0.081857
0.035400
0.076818
-0.001678
-0.029197
0.030288
-0.076018
0.048329
-0.129377
0.185973
0.137483
0.106049
0.126721
-0.044119
-0.035851
0.073329
-0.128729
-0.132572
-0.067450
0.058733
0.079555
0.094838
0.071191
-0.016578
0.008201
-0.122145
-0.159627
0.012536
-0.169365
0.059070
-0.010907
0.062104
-0.014665
-0.005869
-0.074676
0.069771
-0.081950
0.026087
0.028086
-0.160188
-0.038437
-0.010911
0.078222
0.111730
-0.008537
0.012913
0.062997
0.029978
-0.008531
-0.006862
-0.262807
-0.055799
0.025837
0.129050
-0.028866
0.006467
0.058488
0.080701
-0.036607
-0.033724
0.073295
-0.120133
-0.095874
0.050280
0.105195
-0.083207
0.241786
-0.019927
0.125177
-0.016539
-0.139443
-0.025585
-0.070798
0.044351
0.075097
0.073512
-0.042628
0.009922
0.045857
-0.014939
0.006973
0.000980
0.009819
-0.128440
-0.060139
0.013914
0.112370
-0.071028
0.042786
-0.050951
-0.015076
0.049842
-0.183975
0.049557
-0.074185
0.107956
-0.017723
0.036707
0.019818
-0.016706
-0.059642
0.029723
0.045359
0.036074
-0.049485
-0.132418
-0.023347
0.105930
0.081035
0.127806
0.060771
0.043896
0.131237
-0.063602
0.044383
-0.114160
-0.211272
-0.001152
0.167878
-0.004423
-0.034668
-0.088280
0.012322
-0.026621
-0.029193
-0.148199
0.018497
0.002312
0.040648
0.254161
0.067986
-0.050589
-0.042088
0.039368
-0.053795
0.106949
0.020486
-0.032734
-0.128571
0.052647
0.264717
0.253799
0.173351
-0.189535
0.043598
-0.192629
0.075593
-0.137028
0.015769
-0.055615
-0.076108
0.005009
0.169806
0.159001
0.088194
0.024227
-0.023434
-0.115375
0.056873
-0.059523
-0.048007
0.136687
0.185275
0.074048
0.104361
0.131940
0.196051
0.026714
0.111368
0.025505
-0.091585
-0.242174
-0.051861
0.025188
0.043729
0.019476
-0.038010
0.022003
0.143545
0.034706
-0.024877
-0.065129
-0.186476
0.129804
0.208823
0.090071
-0.050663
-0.012267
0.159641
-0.139166
0.036144
0.120847
-0.063539
-0.217346
-0.052907
0.077342
-0.000874
0.150685
-0.155304
-0.090906
-0.021350
-0.090866
-0.028859
-0.073364
0.042775
-0.000005
0.190742
0.023334
-0.036831
-0.007018
0.126619
-0.035472
0.012192
0.051030
-0.034593
-0.133560
-0.043241
0.164289
-0.034229
0.002360
-0.070264
0.103123
-0.024366
-0.144972
-0.067690
0.075107
0.004220
-0.044823
0.076899
-0.024333
0.028650
0.029637
-0.078824
0.021485
-0.124385
0.094391
-0.043419
-0.045399
0.301251
0.219842
0.008761
-0.094748
0.052717
0.110778
0.015164
-0.066215
-0.032137
-0.085692
0.007634
0.019897
-0.083620
-0.094738
0.120193
0.150149
-0.003228
-0.036030
0.093535
0.082368
-0.026419
0.184962
0.115452
0.071375
0.047820
0.259266
0.059936
-0.072528
0.022099
0.038822
-0.120942
0.092320
-0.031737
-0.001044
0.114441
-0.159222
-0.020163
-0.087588
0.101980
0.119848
0.069895
-0.009927
-0.143752
-0.050385
-0.158829
0.072321
-0.084274
0.077919
-0.059056
-0.094882
-0.137599
0.050405
-0.044580
0.078845
0.198319
-0.039152
0.040057
0.152318
-0.018554
-0.075558
-0.071895
-0.194760
-0.016777
0.086801
-0.008393
-0.012156
0.030695
0.020679
0.005448
-0.077273
0.155342
-0.076993
0.079190
-0.026992
0.039223
0.006712
-0.031071
-0.167157
0.020846
-0.135179
0.057016
0.051805
0.064043
-0.034338
-0.104846
0.126412
0.151157
-0.030269
-0.014557
0.015610
-0.041158
0.047751
-0.021615
-0.030820
-0.142640
-0.045325
0.070675
-0.063313
0.034010
-0.142227
-0.012212
-0.031737
0.015643
-0.029046
0.084579
0.111399
-0.235397
0.096128
-0.093313
-0.140769
0.000797
-0.039661
0.026589
-0.038618
-0.158121
0.015560
-0.008703
0.088994
-0.012974
0.079028
0.039206
-0.075227
0.051934
0.153549
-0.044621
0.046528
-0.029275
0.059235
0.041411
0.028507
-0.028677
0.009056
0.066089
-0.018849
0.113176
0.020425
0.160985
-0.095146
0.148692
0.024294
-0.042599
-0.002301
0.103259
-0.001053
-0.008990
-0.033776
-0.017115
0.041235
-0.119756
0.106941
-0.053112
0.022651
-0.013538
0.151531
0.011347
0.024997
-0.070910
0.010452
-0.050948
-0.078553
0.045680
0.112734
0.031589
0.140066
0.054822
0.045354
0.125497
0.081187
-0.062318
0.067233
-0.153221
0.200246
-0.049537
0.048876
0.025423
0.124273
0.105959
0.084566
0.188145
-0.006054
-0.003864
-0.104634
0.118272
-0.002993
0.074852
0.016069
0.212291
0.033790
0.021351
-0.083517
-0.069729
-0.000196
-0.077516
-0.086416
0.110296
0.143702
-0.063148
0.017845
0.090354
-0.108889
-0.041338
-0.034852
-0.015639
-0.221911
-0.023380
-0.008481
0.147967
0.101703
0.086435
-0.041910
0.212927
-0.019001
-0.109737
-0.024805
-0.015392
-0.028772
0.041086
-0.027988
-0.007239
0.000446
0.029208
0.020972
0.041948
-0.096815
-0.083777
-0.008792
0.104463
-0.021121
-0.022882
0.045328
0.163936
0.129009
0.195426
-0.185568
-0.078523
-0.176370
-0.044414
0.063705
-0.004564
0.055959
-0.014338
0.050930
-0.039201
0.145098
-0.043238
0.073421
-0.037956
-0.010761
-0.001025
0.051230
-0.093918
-0.020207
0.007502
0.050883
0.041261
0.013872
0.012765
0.027255
0.045483
-0.134658
0.045778
-0.043898
0.042165
-0.031727
0.096420
0.002219
0.106108
0.030023
0.026089
0.052937
-0.000473
-0.007207
0.024684
0.052988
-0.115126
0.105654
0.123593
0.026396
0.121155
0.177606
0.042108
0.035187
0.023074
-0.031338
0.113013
-0.066184
0.032887
0.063329
0.130565
0.014805
0.162288
0.032455
0.118023
0.119653
-0.105260
0.014482
0.027072
0.030922
-0.074952
0.006042
0.154629
0.066405
0.061653
0.002575
-0.068802
-0.022345
0.041028
-0.103384
-0.076801
-0.049358
0.002190
0.104020
-0.025907
-0.019391
0.023429
0.081131
-0.028362
0.059225
-0.110204
0.178988
0.035299
0.008596
0.123951
-0.082247
-0.016258
-0.033189
-0.030185
-0.144640
0.091956
-0.033630
0.042368
0.159364
-0.141067
-0.018828
0.015684
-0.024530
-0.034665
-0.132595
-0.189892
-0.013612
-0.190000
0.090548
-0.073169
0.005023
-0.053305
-0.043614
-0.055449
-0.078898
0.097028
-0.056228
0.141075
0.029402
0.163350
0.063626
0.041392
-0.039590
-0.048632
-0.029857
-0.051398
0.072617
-0.141649
0.041818
-0.058782
-0.398873
-0.485834
-0.293417
-0.245793
-0.165577
-0.072238
-0.169342
0.009591
0.000815
0.055929
-0.044446
-0.176015
-0.264603
-0.209794
-0.116140
-0.092032
0.005360
0.004465
0.110099
-0.120861
0.063046
-0.096798
0.087842
-0.110234
-0.095364
-0.091526
-0.046522
0.105542
-0.031646
0.039160
-0.119716
-0.100680
-0.161468
0.057359
-0.181087
-0.169533
-0.130463
-0.089299
-0.014883
-0.103599
-0.001985
-0.152888
0.069551
-0.196740
-0.158705
-0.295713
-0.151728
-0.125840
0.032310
-0.072299
-0.206030
-0.076222
-0.082681
-0.067540
-0.251361
-0.040123
-0.078472
-0.112228
-0.072450
-0.102736
-0.024178
0.037117
-0.144525
0.011878
0.015751
-0.035309
0.216897
0.010295
-0.124063
-0.065972
-0.087974
-0.155270
-0.000951
-0.022978
0.016557
0.173312
-0.032593
0.062660
0.111558
-0.062728
0.003242
-0.125736
0.027186
-0.017035
0.034993
-0.133389
-0.056558
-0.012361
-0.095743
-0.030110
-0.059545
-0.022066
0.016654
0.031492
0.021678
0.037486
-0.099104
-0.084928
0.107878
-0.083504
-0.036004
-0.039906
-0.080631
-0.077954
0.029746
-0.050277
-0.038613
0.005151
0.020736
0.130358
0.062959
0.019916
0.132501
0.016466
0.028426
-0.069571
-0.066496
0.097309
-0.033991
0.043475
-0.058712
-0.033931
-0.035838
0.047027
-0.015947
-0.032112
-0.079097
0.034837
0.144691
-0.071656
0.019270
0.071785
0.053775
0.004162
-0.005918
-0.186013
-0.171950
-0.255881
-0.023123
0.093402
0.016294
0.105115
-0.015672
0.150685
-0.030475
0.194082
0.102621
0.167278
-0.215580
-0.039130
-0.020870
-0.097573
-0.154060
0.030812
0.041567
-0.273229
-0.272947
0.014338
0.109865
0.042034
0.199642
0.054121
-0.181488
-0.088388
0.144022
0.065219
-0.028334
-0.276666
-0.176608
0.015592
-0.032515
0.146535
-0.070556
-0.049240
0.161633
-0.020030
-0.002593
0.029318
-0.185378
-0.048988
0.169477
-0.045416
-0.001347
0.084818
-0.044511
-0.090467
0.132050
-0.046594
-0.043317
-0.128377
-0.130865
0.034930
-0.011016
0.008824
-0.018179
-0.012852
0.051362
0.095285
0.071340
-0.062904
-0.190619
-0.177815
-0.230283
0.204073
0.179331
0.115367
0.051795
-0.140531
-0.147538
-0.057127
-0.056184
0.072638
-0.108715
-0.085509
-0.132112
-0.073437
0.014194
-0.049110
-0.000445
0.110795
0.159510
-0.006638
-0.193951
-0.194718
-0.044480
0.120321
0.173476
-0.109305
0.025587
0.020248
-0.116555
-0.121690
-0.175276
-0.133803
-0.052432
0.046076
-0.153799
0.038077
0.005512
-0.060993
0.028836
-0.078830
-0.036844
-0.012432
0.129456
-0.020483
-0.064058
0.032069
-0.005228
-0.011366
-0.096183
0.062107
-0.018833
0.052988
-0.118137
0.031306
-0.043610
0.077267
-0.002684
0.067862
-0.090537
0.041728
-0.085518
-0.048487
-0.101472
-0.026577
-0.052147
-0.130147
0.051363
0.056463
-0.026537
-0.002846
0.009089
0.008682
0.079205
-0.153300
0.169615
0.115795
-0.116029
0.127538
0.008890
0.055799
-0.036016
-0.136760
-0.052424
0.085852
-0.156900
-0.021953
-0.083053
0.065049
0.047148
-0.100734
0.139770
-0.013230
-0.078824
-0.009916
0.078613
0.116287
-0.089854
0.034121
0.041647
0.039751
0.125607
0.052869
0.011070
0.131146
-0.025416
0.062417
0.051858
0.131826
0.037768
0.075429
0.048461
0.041985
0.007351
0.070749
0.012938
-0.000258
0.138000
0.167308
0.082422
0.015678
0.155702
0.130028
0.007484
0.052656
0.133120
-0.043219
0.054496
0.104537
0.000965
0.086653
0.160954
-0.052438
0.060162
0.097048
0.014550
0.062309
-0.048891
0.073048
-0.090676
0.035537
0.007824
-0.074498
0.050121
0.074134
0.002798
0.052902
-0.090547
0.016551
0.008433
0.160547
0.015519
-0.015486
0.007967
-0.000371
-0.143257
0.079833
0.055124
0.206700
0.018052
0.094133
0.022781
0.067509
0.138547
0.117784
-0.026133
0.098198
0.009236
0.072505
0.043242
0.141092
0.113216
0.050490
0.068126
-0.284278
-0.128909
-0.078759
-0.001435
-0.124365
0.059215
-0.279001
0.077649
0.007004
0.035680
0.069217
-0.037583
0.150766
-0.158501
0.073805
0.064828
0.030864
0.056390
0.046968
0.086318
-0.022088
-0.028398
-0.066890
0.069222
-0.030619
-0.168694
-0.084762
0.170060
-0.087604
0.226588
0.022690
-0.012524
-0.031997
-0.109861
-0.036195
0.087261
-0.010130
-0.069493
-0.174572
-0.000255
0.075042
-0.197207
0.083700
-0.011893
-0.006305
-0.121019
-0.124874
-0.058694
-0.141798
-0.092077
-0.092043
-0.076750
0.076536
0.046066
-0.081699
0.033295
0.084230
-0.036348
-0.011078
0.008733
-0.035203
-0.078231
-0.153765
-0.098709
-0.000672
0.097003
-0.142097
-0.134701
0.170391
-0.040707
-0.065615
-0.002638
-0.114926
0.087409
-0.195745
0.013364
0.149371
0.056909
0.061285
-0.083553
0.024223
0.169016
0.062785
0.049153
0.031517
-0.130582
0.021520
-0.027552
-0.162983
-0.051598
-0.086026
0.063905
-0.096884
-0.099662
0.095347
-0.105406
-0.037024
-0.037354
-0.008489
0.026673
-0.018899
-0.046403
-0.014839
-0.010745
0.078037
-0.102048
-0.041419
-0.018787
-0.116642
-0.101542
-0.003024
-0.131866
0.009758
-0.002005
-0.062803
0.002554
-0.196392
-0.014904
-0.106013
0.092995
0.052094
0.066363
0.080097
0.189299
0.034546
0.081948
-0.032033
-0.025103
-0.018639
0.031910
-0.070148
-0.071900
0.013538
0.012046
-0.053722
0.012269
-0.092632
-0.084002
0.073473
-0.052057
-0.051013
0.030530
-0.068818
0.081262
0.161585
0.208177
0.161416
0.025639
0.102878
-0.119975
0.042525
-0.102452
-0.038616
0.047916
0.088541
0.187939
-0.000401
-0.032202
0.113498
-0.138198
-0.093317
0.004608
0.092183
0.071410
0.022491
0.056415
-0.007673
-0.107229
0.058179
-0.093478
0.085955
-0.013194
0.040359
-0.019761
-0.039412
0.014083
-0.107891
0.146374
-0.104914
-0.108954
-0.019927
0.026335
-0.092724
0.092348
0.215061
0.167901
0.178054
0.147010
-0.000584
0.050432
-0.045612
-0.096051
-0.186259
-0.169476
-0.049193
-0.065780
-0.124007
0.011293
0.038985
0.138278
0.123928
0.131328
-0.110564
0.028919
-0.144023
-0.052540
0.052063
0.026612
-0.059915
0.061259
0.110795
0.011439
-0.124897
-0.069475
0.023581
-0.026739
0.087400
0.017384
0.013144
0.020123
-0.051963
0.004195
0.010781
-0.026713
-0.064786
-0.236920
-0.035164
-0.018763
-0.066159
0.204102
0.069017
0.254939
0.095172
0.038946
-0.161920
-0.157518
-0.083701
0.106338
-0.025044
0.101433
0.190683
0.078024
-0.023446
0.092136
0.060943
0.033910
0.097465
0.065231
0.054359
0.053872
0.328875
0.202827
0.179849
-0.020866
-0.026856
-0.033983
0.111927
0.084122
0.025009
-0.118508
-0.097072
-0.070134
-0.034619
-0.008036
-0.186473
-0.057444
-0.087386
0.021935
0.090884
0.041725
-0.077632
-0.209397
0.072233
-0.115327
-0.014338
0.003109
0.102085
0.111401
0.025852
-0.068734
-0.041834
-0.147557
0.017910
0.094618
0.066223
0.037397
-0.072097
0.133738
0.112921
-0.037312
-0.030559
-0.098675
-0.026135
-0.077807
-0.076260
-0.063992
0.082933
-0.020567
0.087337
-0.002438
0.049438
0.101976
0.016594
0.050594
0.002995
0.168120
-0.019707
0.160648
-0.024215
-0.011462
-0.157393
0.073161
0.132426
0.000308
0.423928
-0.067881
0.082489
-0.068022
0.083043
0.048821
-0.000478
0.094417
0.049875
-0.096736
-0.011654
0.073602
-0.120107
0.069164
-0.085698
0.029674
-0.183676
-0.008669
-0.145940
-0.046002
-0.061681
-0.004785
0.031635
-0.034805
-0.022508
-0.049001
0.040551
-0.241570
0.084119
-0.018986
-0.063096
-0.010085
-0.093364
-0.067129
-0.105154
0.015356
-0.101487
0.058908
-0.075395
-0.081064
0.019090
0.080377
0.067174
-0.034949
-0.009517
-0.038845
0.071479
-0.006867
-0.050524
0.042746
0.107582
0.162719
0.223773
-0.063744
0.174582
-0.044828
-0.096982
0.023917
0.029945
-0.021472
-0.166734
-0.099146
-0.044633
0.086556
-0.110750
-0.027010
-0.108403
0.019535
-0.087809
0.053395
-0.104762
0.002383
-0.015282
-0.073122
-0.012602
0.015046
0.055367
0.094612
-0.096058
-0.147004
0.098804
0.063265
0.096078
0.067060
-0.076936
-0.090335
-0.014082
-0.052103
0.027284
-0.102180
-0.155821
-0.024770
-0.011588
0.218776
0.126011
0.027205
0.051887
0.128280
-0.083081
0.130471
0.024900
0.153198
-0.026044
-0.078830
0.080775
-0.067546
0.096321
-0.100212
0.004880
-0.012098
-0.042834
0.043812
0.166572
0.006008
0.103469
-0.085647
-0.160740
-0.011050
-0.039777
-0.029996
0.025804
0.068682
-0.019061
0.140566
-0.007560
-0.049056
-0.022038
-0.050137
-0.057949
-0.086398
-0.132849
-0.032323
-0.008658
0.053985
-0.079206
-0.013198
-0.012488
-0.078697
0.069397
0.048900
0.133111
-0.110484
0.008401
-0.139764
0.029020
-0.045377
-0.137176
0.039207
-0.082784
-0.011702
0.037900
-0.160059
-0.028859
-0.147298
-0.039023
-0.004959
-0.030221
0.122123
-0.065114
0.168033
0.024373
0.103357
0.012635
-0.023857
-0.130782
-0.051541
0.025196
-0.028805
-0.061197
0.093765
-0.068290
-0.081411
0.104227
-0.047247
0.036142
-0.013229
0.092205
0.113959
-0.034393
-0.081767
-0.009078
0.107627
0.317524
0.000200
0.132132
0.200013
0.076454
0.107422
0.000747
0.138959
-0.002221
0.015506
-0.155846
-0.219035
-0.099886
-0.194461
-0.097519
-0.047873
0.149349
0.016278
-0.160632
-0.216212
0.072269
-0.040241
0.023462
-0.028022
-0.122466
0.056913
-0.036717
0.080718
0.077552
0.308792
0.251820
0.243667
0.043384
0.076670
0.086670
0.062981
0.079687
0.174244
0.092431
-0.039291
-0.002657
-0.011857
0.086899
-0.095678
0.119281
-0.248238
-0.175113
-0.089386
-0.130594
0.033191
0.017892
-0.075270
-0.051361
0.042491
-0.189927
0.044704
-0.052404
0.080794
-0.063149
0.074893
-0.001478
0.048966
-0.044902
0.031865
-0.094019
-0.194867
0.019015
-0.143216
0.094236
-0.093754
0.086284
-0.178116
-0.091421
0.059948
0.083888
0.093160
-0.058903
0.114170
-0.170436
0.168559
0.014425
0.070637
0.027855
0.104940
-0.036092
0.034412
0.131354
0.090151
-0.071639
-0.009424
0.119925
0.081540
0.079167
0.002395
-0.034685
-0.057673
0.126957
0.166112
0.235967
0.110152
0.075501
0.023826
0.002210
0.282631
0.095512
0.067842
0.038589
0.070575
0.103634
0.103268
0.242917
0.282811
0.007410
-0.040052
-0.042057
-0.051266
0.021598
-0.083501
0.041002
0.027890
0.103062
-0.029450
-0.032901
-0.177425
-0.015910
-0.177250
-0.159201
-0.036849
-0.020770
-0.016089
-0.155311
-0.044016
-0.206617
-0.092010
-0.118252
-0.078712
-0.163768
-0.204124
-0.002825
-0.206856
-0.020463
0.013144
0.170765
-0.200494
0.055683
-0.151376
0.007896
-0.065212
0.022828
-0.001697
0.032601
0.112920
0.078589
0.008100
0.040349
0.200987
-0.285742
-0.019981
-0.252278
0.160475
-0.187086
0.160884
-0.171708
-0.114046
-0.022765
0.048276
-0.061469
0.043805
-0.066437
-0.074528
0.031677
0.016301
0.040493
0.069822
0.085607
-0.096994
-0.001589
-0.019970
-0.031267
0.082897
-0.012010
-0.053613
0.055353
-0.058912
-0.080749
0.054463
0.042560
0.007825
0.061717
-0.088190
0.015690
0.068500
-0.046142
-0.031072
0.026245
0.035110
-0.108032
0.053997
-0.003162
0.006990
-0.033310
0.057846
-0.039535
0.172700
-0.007932
-0.067576
0.096439
0.068892
-0.058911
0.016348
0.042386
-0.097151
-0.008620
-0.027602
0.048170
0.164733
0.103575
0.168848
-0.028141
0.127972
-0.018773
0.044982
-0.072013
0.084377
-0.111074
0.062761
-0.036885
-0.025268
-0.007959
0.097021
-0.066308
-0.081551
0.096220
0.083777
0.012561
0.064546
-0.058292
-0.022744
-0.015418
-0.022789
-0.072298
-0.079747
0.130519
-0.031939
0.020962
0.030512
0.121596
0.014267
0.039971
0.089459
-0.130404
0.065332
-0.088754
0.106733
-0.056224
-0.054354
-0.159050
-0.243723
-0.036382
-0.008042
-0.151865
-0.037395
-0.012593
-0.007061
-0.038103
0.144573
0.105967
0.036611
-0.048115
-0.055190
-0.081981
0.084761
0.038874
0.025559
0.188765
0.149518
0.065151
0.090237
0.018443
0.053422
0.020866
0.117085
0.012266
0.026042
0.031128
0.196904
0.124250
0.022928
-0.007722
-0.064513
0.121345
-0.119012
0.001172
0.054557
-0.038991
-0.072964
0.088586
0.015961
0.176799
0.199574
0.019822
0.024693
0.120500
0.006934
0.018788
-0.068696
0.005745
0.037106
0.008071
0.041618
-0.004555
0.166575
0.119184
0.185507
0.135408
0.035276
0.041692
0.098351
-0.035542
0.057744
0.038755
0.035167
0.050513
-0.023493
0.127751
0.144677
0.107898
0.145834
-0.013370
0.117388
-0.018525
0.040887
-0.058897
-0.023468
0.109602
-0.114385
-0.119062
-0.220993
-0.120074
0.008800
-0.116529
0.132158
-0.005245
0.085132
-0.062123
0.002283
0.037411
-0.021658
-0.149408
-0.132175
-0.134295
-0.055230
-0.053132
-0.056395
-0.030674
-0.000843
-0.033388
-0.046653
-0.086063
-0.046760
-0.001071
-0.127332
0.015657
0.088078
0.089056
-0.033533
0.059583
-0.107727
0.026157
0.102950
-0.050927
0.046368
-0.007060
0.064727
0.104004
0.258708
0.205169
-0.138675
-0.120728
-0.001029
0.040487
-0.008864
0.083173
0.062579
-0.002303
0.104092
-0.173539
0.145336
0.176972
0.050139
-0.179789
0.051367
0.184723
0.004462
-0.085691
0.059514
-0.082226
0.015228
0.055232
0.136743
0.157232
-0.047449
-0.091481
-0.051332
0.041409
0.098193
0.078200
0.000211
0.033079
0.034552
0.003862
-0.089978
0.079891
-0.027393
0.043330
-0.023164
-0.000422
0.057069
-0.034551
0.059834
0.029473
0.108876
0.013329
0.033241
-0.095780
-0.127556
-0.147874
-0.158172
-0.033046
-0.087953
0.068477
-0.034910
-0.159203
0.048315
-0.063323
-0.012155
-0.016018
-0.057663
-0.009491
-0.057274
-0.118761
0.077925
0.095711
0.240199
-0.042612
0.026199
-0.001504
0.113284
-0.070811
0.049059
0.062692
-0.059090
-0.086377
0.048847
-0.050168
-0.038223
-0.006023
0.039314
0.065466
-0.102928
0.016573
0.136689
0.034442
-0.111217
-0.038583
-0.016535
0.007323
-0.029057
-0.146704
0.044278
0.015060
0.000852
-0.039323
-0.005688
0.041892
-0.017483
0.032680
-0.075088
-0.103410
0.024569
-0.014469
-0.050502
0.047765
0.003809
-0.033425
0.035442
0.070218
-0.006915
-0.040500
-0.030730
-0.052514
-0.123263
0.064686
-0.154473
0.099814
0.001911
0.060802
-0.038156
-0.039506
0.058127
-0.050879
0.125680
-0.004554
-0.165390
-0.097641
-0.111715
0.048025
-0.076016
-0.039947
-0.078729
-0.038289
0.100156
-0.093335
0.110801
-0.266862
0.102159
0.100590
-0.039845
-0.043133
-0.012536
-0.014858
-0.163291
-0.111342
-0.017078
0.072325
-0.089198
0.083877
-0.104660
-0.044767
-0.048890
-0.173593
-0.186155
0.146943
-0.132726
0.085918
-0.013750
0.057982
-0.113313
0.118735
0.129737
-0.059547
0.157202
-0.046315
0.035707
-0.080059
0.002151
-0.013149
0.007466
-0.022970
0.174293
0.015347
-0.040606
-0.073645
-0.121600
0.214321
0.009613
-0.044944
-0.174557
-0.122614
-0.262856
0.061160
0.107624
-0.076303
-0.048520
-0.049566
-0.016292
-0.064792
-0.087467
0.003964
-0.047784
-0.179658
-0.179580
0.034911
0.166365
0.126476
-0.308955
-0.243735
-0.039614
-0.145388
-0.095144
0.267942
0.140170
0.003187
-0.184260
-0.012590
0.086742
0.174687
-0.140551
-0.066108
0.070831
-0.070060
0.131010
0.049833
0.249311
0.161585
-0.109313
0.023004
-0.013463
0.004864
0.146745
0.146247
0.229585
0.071086
0.054079
-0.119463
-0.004313
0.057272
-0.074777
0.026555
-0.029708
0.041088
-0.094100
-0.056937
0.041404
-0.060065
-0.112750
-0.210804
0.177634
-0.049334
0.152850
-0.027753
0.107257
0.064045
0.050222
0.157091
0.178512
-0.129324
-0.011090
0.037501
-0.029626
0.056330
0.075167
0.272252
-0.084997
0.092038
-0.226559
-0.082153
-0.131412
-0.002755
0.048048
-0.022748
0.041077
-0.016632
-0.038077
0.029496
-0.027499
0.010023
-0.139026
0.008637
-0.253413
-0.012988
0.242428
-0.071950
0.149958
0.101510
-0.012476
0.047483
0.053251
-0.018936
-0.153674
0.053687
-0.019406
-0.081513
-0.066022
0.200678
-0.145526
-0.051606
-0.061201
-0.033090
0.114328
0.030143
-0.037494
-0.015354
-0.012277
-0.070042
0.020791
-0.150009
0.019984
0.089964
0.048144
0.013885
-0.004340
0.082708
-0.086270
-0.041743
0.102261
0.001432
-0.071057
-0.074328
-0.002664
0.172737
0.074610
0.138438
0.073042
0.044527
0.104847
-0.006850
-0.037551
-0.007967
0.088824
0.057852
-0.042485
-0.054961
0.131684
0.021235
-0.043723
0.050105
0.057042
-0.083153
-0.024520
-0.049333
0.003896
0.106359
-0.006101
-0.060114
0.179930
0.034681
0.013209
-0.085683
-0.122767
-0.038093
0.013524
0.038955
0.003047
0.080713
0.013723
-0.021307
0.022987
-0.063361
0.233381
-0.025587
-0.080698
-0.078876
0.140341
0.014320
-0.049515
0.020575
0.082685
0.015817
0.069916
0.001660
-0.131429
-0.033085
0.118607
0.044268
0.095205
0.022717
-0.019487
0.065338
-0.130637
0.136995
-0.066393
-0.085868
-0.044943
0.097695
0.007216
-0.032570
-0.075957
-0.036402
-0.115711
0.047007
-0.076162
0.042933
-0.033069
-0.032234
-0.052547
-0.154387
-0.080969
-0.006855
0.031527
-0.005781
-0.133768
-0.108554
-0.101129
0.002989
-0.152805
0.021199
0.062214
-0.029917
0.129830
0.064682
-0.102055
-0.051193
-0.128116
0.128934
0.018490
0.038785
0.057888
0.101982
0.036639
0.058293
0.025248
-0.011765
-0.034227
0.017791
0.103752
0.046790
-0.060373
-0.059550
0.109817
-0.041773
-0.098995
0.061799
-0.185031
-0.048723
0.083730
0.149485
0.022642
-0.024424
0.088444
-0.057089
-0.008043
0.004719
0.141784
0.039756
-0.012189
-0.008174
0.088690
0.018858
-0.049407
-0.045649
0.064908
0.018276
0.059157
0.057763
-0.064017
-0.096220
-0.169886
0.047398
-0.137004
-0.118534
-0.073631
-0.008209
-0.010816
-0.022344
0.032468
-0.019111
-0.098365
0.106586
0.078617
0.066421
0.024437
-0.069405
0.018055
-0.089945
0.025106
-0.098656
-0.123346
-0.027090
-0.157526
-0.035460
-0.011969
-0.102208
-0.047570
-0.275330
-0.098439
0.031589
0.097704
-0.086460
-0.129305
0.152567
-0.070371
-0.204667
-0.029293
-0.074790
-0.007664
-0.199835
-0.153562
-0.041112
0.171995
0.134881
0.003597
-0.121158
-0.013289
0.067750
-0.154655
0.004061
-0.074650
-0.032022
-0.296308
0.005723
0.017923
0.149256
0.157768
0.045758
0.098694
-0.059599
0.085381
-0.086755
-0.033654
-0.099063
0.013566
-0.010397
0.095172
0.105324
0.322964
0.167798
-0.021816
0.057169
0.273772
-0.021191
-0.024710
-0.005324
-0.069341
-0.100315
0.003165
0.108050
0.063641
-0.039723
0.217014
0.017501
0.115303
-0.122340
-0.084532
-0.041196
0.055076
-0.162818
0.009769
-0.010990
-0.022825
0.036117
0.059573
-0.140624
-0.068467
0.112627
0.137021
0.092713
-0.007475
0.153323
-0.020484
0.158855
-0.046548
0.010585
0.053206
-0.005647
-0.058641
-0.014771
0.066851
0.008388
-0.002762
-0.057313
0.020514
-0.002146
0.109800
0.078669
-0.060272
-0.043485
-0.089184
-0.028339
0.068653
0.041368
-0.056657
0.038481
0.072534
-0.118839
0.071121
0.184270
-0.033607
-0.035665
-0.064225
-0.034497
-0.145156
-0.095002
-0.185853
-0.017176
-0.131628
-0.129393
0.004876
-0.094606
-0.092282
0.121525
0.018101
0.110156
0.025205
-0.085446
0.053669
-0.016396
-0.076226
0.006096
-0.014175
-0.033999
0.162499
-0.091045
0.026316
-0.018933
0.032767
0.026440
0.047223
-0.057855
0.064480
-0.053732
-0.082138
-0.004130
0.010846
-0.022362
0.175233
0.015561
-0.053718
0.060795
0.097470
0.099902
-0.127246
0.014818
0.001379
0.007262
-0.005922
0.069702
-0.051524
0.109645
0.044222
-0.107725
0.031108
-0.140526
-0.005209
0.070299
-0.078786
-0.075545
-0.071300
-0.012986
-0.025296
-0.020218
0.071899
0.010762
0.016044
0.025691
-0.218360
0.142613
-0.006398
0.125348
-0.137508
0.032775
-0.002210
-0.059554
-0.121303
0.082509
0.121282
-0.087550
-0.090041
-0.096210
-0.108713
0.116224
-0.100446
-0.089208
0.083945
-0.084775
-0.026548
-0.011520
-0.073094
0.036658
-0.039824
0.046644
-0.033115
-0.092064
0.108827
0.020985
0.086705
-0.205917
-0.047726
-0.068261
-0.212009
-0.071169
0.099075
0.054688
0.117169
-0.109357
0.111908
-0.009617
0.091071
-0.108307
0.088022
-0.146506
0.100273
0.072860
-0.005510
-0.015374
-0.034248
-0.091030
0.089075
0.019819
0.023965
-0.037282
-0.112505
-0.030607
0.081382
0.166428
0.000090
-0.094097
0.220890
0.047005
0.124759
0.033769
-0.014651
-0.042038
0.150414
0.088253
-0.083485
-0.024065
0.033643
-0.078538
0.012598
0.217130
0.015040
0.059852
0.048117
0.092328
0.052435
-0.011919
-0.126622
0.004419
-0.022852
-0.041724
-0.055599
-0.116271
0.088333
-0.026888
0.185287
0.198209
0.018657
0.130281
0.085712
-0.055896
0.021086
0.089182
-0.030563
0.096099
0.084354
0.202531
-0.026613
0.010960
0.059572
-0.149382
-0.029651
-0.102636
0.076795
-0.066285
-0.069364
0.030643
-0.011963
-0.055993
0.024458
-0.084016
-0.017838
0.077736
-0.060272
0.063571
0.023166
0.011300
0.040883
-0.030396
-0.102226
-0.142278
0.101201
0.024694
0.085766
-0.089516
0.074414
-0.052596
0.080581
-0.223185
0.028239
-0.000809
-0.012186
-0.052812
0.030620
-0.014955
0.104331
-0.063786
-0.049825
0.023166
-0.080896
-0.028562
-0.108803
-0.078690
-0.074864
-0.063667
-0.104505
-0.048657
-0.110056
0.105880
0.080935
0.053870
0.120974
0.202760
-0.036225
0.092438
-0.004194
-0.069826
0.038333
-0.042027
-0.090406
0.068116
-0.033687
0.011410
-0.009929
0.144133
0.128688
-0.095409
0.101250
-0.003234
0.110990
0.056646
0.070817
0.000480
-0.038428
-0.090722
0.078236
-0.105026
0.015984
0.171100
0.013574
0.028695
-0.106867
-0.071796
-0.007945
0.003543
0.020767
-0.074919
-0.001723
0.197967
0.177641
0.138779
0.070462
0.099263
0.100312
-0.079574
0.136879
0.016293
0.015561
-0.056743
0.075212
-0.002220
0.027977
0.003868
0.114584
0.138730
0.120490
0.148433
0.136464
-0.120326
0.030718
0.017537
-0.027253
-0.067087
-0.084702
0.215651
-0.012803
-0.067047
0.161703
-0.065949
0.046611
0.023552
-0.101806
-0.004362
0.005845
-0.007080
0.071153
-0.042947
-0.108629
-0.139992
-0.127109
0.013239
0.025509
-0.015133
0.028738
0.029466
0.028243
0.039164
0.019177
0.064560
0.020842
-0.076362
-0.168851
0.009236
0.053400
-0.039578
-0.247582
0.033289
0.080206
-0.080884
0.018801
0.038992
-0.005505
0.003614
0.077377
-0.002421
-0.042986
0.093514
0.064127
-0.093489
-0.024052
-0.009143
-0.052123
0.041419
-0.060120
-0.086640
0.079812
0.045191
-0.010589
-0.028678
0.057147
0.183877
-0.147298
-0.020241
0.001984
0.072620
0.066940
-0.017594
0.073612
0.104179
-0.074797
-0.034854
0.032129
-0.067040
-0.092693
-0.006271
-0.008009
-0.016869
-0.113796
0.010289
-0.106223
0.051439
0.098448
0.111796
-0.019463
0.021087
-0.021915
0.150455
0.023570
-0.042065
0.004108
0.161160
-0.075010
0.131013
0.009262
0.043724
0.006226
-0.022004
0.046591
0.159425
0.049834
0.058792
0.013064
-0.018628
0.007863
0.006302
0.027743
0.031430
-0.236088
0.048836
-0.029369
0.020128
-0.089438
0.139682
-0.206147
-0.035354
-0.098664
-0.053996
-0.149032
-0.127564
-0.063788
0.019463
0.032853
-0.013387
-0.019755
-0.048588
0.143744
-0.048223
-0.130755
-0.037369
0.037008
0.043187
0.034543
0.037824
0.058095
0.006984
-0.122539
-0.025999
-0.137221
0.021763
0.006383
-0.103910
0.013349
0.042271
-0.111634
-0.044407
-0.240263
-0.002666
-0.013018
-0.003731
0.098963
-0.044764
-0.006152
-0.076785
-0.035456
-0.154540
-0.191570
0.054511
0.124615
-0.075518
-0.056382
-0.022412
0.053269
0.043054
0.060593
0.168101
-0.009825
0.085044
-0.043400
0.130117
0.131538
-0.110435
-0.101219
0.190950
-0.002237
0.088782
-0.079442
-0.115099
-0.022059
0.009793
-0.104538
0.084471
-0.036528
-0.170397
-0.034289
-0.030718
0.033354
-0.041424
-0.108502
-0.149387
0.084917
0.037299
0.028887
-0.162068
0.183507
-0.015316
0.021912
0.126603
-0.011933
0.078444
0.062875
-0.219890
0.138582
0.292734
-0.001487
-0.032723
-0.137968
-0.192493
0.102394
-0.170688
-0.034589
-0.014181
0.090613
0.020247
0.028803
0.230642
-0.056144
-0.220699
0.030217
0.139007
-0.011636
-0.077166
0.022670
-0.117284
-0.191080
-0.023056
0.057982
0.151449
0.128649
-0.170150
-0.293004
-0.219334
-0.132404
-0.113158
0.059229
-0.048581
-0.015485
-0.027068
0.006979
0.098226
0.085721
0.157285
-0.133868
-0.049145
-0.338230
0.023778
-0.181505
0.005390
-0.030597
0.067497
0.031213
0.015845
0.113875
-0.030982
0.079004
-0.112506
-0.003867
-0.004724
0.148709
-0.072888
0.026311
-0.036707
-0.096829
-0.059313
0.010646
-0.020744
-0.002611
0.077933
0.193150
0.251870
-0.053783
-0.051344
0.046084
-0.038313
0.111684
-0.114967
-0.139311
-0.039564
-0.069453
-0.118330
-0.087386
-0.164308
-0.138126
-0.056102
0.083228
0.109290
0.148949
-0.052909
-0.102714
0.031315
-0.200775
-0.046323
0.077954
0.100189
-0.174960
-0.220709
-0.085643
0.107612
0.147119
0.070787
0.119819
-0.148740
-0.027189
0.070736
0.113378
-0.208434
-0.161813
-0.109732
0.185528
-0.055253
0.114544
-0.139219
-0.145393
0.129436
0.028763
-0.009363
0.007127
0.013582
0.071951
0.106964
-0.002031
0.082792
0.078497
0.092800
0.216261
-0.083775
0.062768
0.122470
-0.062904
0.074746
-0.071059
-0.010579
0.008429
0.011970
-0.362468
-0.501622
-0.218585
0.133721
0.064595
0.067151
0.053660
0.040321
0.012360
-0.046456
0.004460
-0.004196
0.077454
-0.041467
-0.598436
-0.251417
0.184763
0.172968
0.087356
0.058522
-0.076300
-0.023448
-0.005350
-0.039595
-0.069941
0.014909
-0.190485
-0.294374
-0.149627
0.090613
0.120098
0.221794
0.046371
-0.003688
-0.037790
-0.036067
0.073076
0.025169
0.140723
0.033972
-0.071631
-0.054453
0.077268
0.092448
0.103372
-0.083791
0.076515
-0.088099
0.008882
-0.031205
0.021942
0.021839
-0.124264
-0.086046
-0.058817
0.068307
0.095200
0.062741
-0.055105
0.012247
-0.030189
-0.008124
0.017578
0.007886
0.062587
0.025992
0.052984
-0.082205
0.053269
-0.038740
-0.058771
-0.016592
-0.006534
-0.099074
0.069621
-0.045177
-0.022651
0.054789
0.012465
0.027438
-0.111020
-0.029739
-0.029800
-0.041171
-0.015395
0.069857
0.009565
0.013916
0.007618
0.093972
-0.040482
0.032627
0.078217
0.111367
-0.041427
-0.077243
0.099990
0.002573
-0.006560
0.108496
0.060613
0.174246
0.049698
0.074903
0.035679
0.083280
-0.041593
0.163826
0.063927
0.070636
-0.076460
0.056094
0.181745
-0.023013
-0.114014
0.056343
-0.035042
0.020963
-0.170809
0.076930
-0.164084
0.116883
-0.246328
-0.090876
-0.208696
-0.053903
0.083598
-0.029546
0.064704
-0.006813
0.118280
0.161879
-0.011087
0.172667
0.114324
-0.055985
0.032660
-0.052802
-0.146910
0.061385
0.068224
0.179735
0.009693
-0.123323
-0.022916
-0.011616
-0.034248
-0.044287
-0.119314
-0.079171
-0.110566
0.010748
0.098887
0.162476
0.032434
0.031505
0.097399
0.079990
-0.039248
0.039339
0.103349
0.148680
-0.139112
0.039994
-0.029175
0.160561
0.091154
0.207472
0.001839
0.068350
0.074659
0.026958
0.105216
-0.064163
0.111931
-0.057586
0.041497
0.219285
0.235328
0.064575
-0.028252
-0.080852
-0.081869
0.142322
-0.152954
0.273516
-0.046274
-0.036473
-0.194170
-0.253407
0.335990
0.245952
-0.205765
-0.342306
-0.063910
-0.176291
0.163518
-0.195917
0.085988
-0.127260
0.177530
0.167169
0.004551
0.098972
-0.194888
-0.328167
-0.348653
-0.027658
-0.265678
-0.140786
-0.096668
0.009976
-0.155200
0.216109
-0.042151
-0.054429
0.124661
-0.027226
-0.083272
0.057471
0.116712
0.084708
0.101205
0.099945
-0.082098
-0.107611
-0.118554
0.310462
0.059234
-0.003638
-0.147755
0.015434
-0.010544
-0.015202
-0.039561
0.069694
-0.040220
-0.078419
-0.040372
0.004283
0.002572
0.102351
0.253279
0.165441
0.083412
0.015237
0.072638
-0.011086
-0.009667
0.017723
0.083364
0.074667
-0.208367
0.149106
-0.042270
-0.106646
-0.096912
-0.075645
-0.139019
-0.053615
0.035241
0.045259
-0.068059
-0.049711
0.000444
-0.221551
-0.085390
-0.139223
-0.099473
-0.046387
0.039674
-0.177490
0.113995
0.003391
-0.043480
0.040601
0.057489
0.018031
-0.060642
0.008304
-0.297039
0.043246
-0.095658
0.120045
0.043186
-0.073925
-0.088896
0.085712
-0.052336
0.025793
0.027582
0.000206
-0.136383
0.081431
0.103276
0.022467
0.088938
-0.006710
0.118769
-0.114979
-0.090908
0.064285
0.086718
0.057891
-0.061969
0.098602
-0.054934
0.025202
-0.078429
-0.025864
0.017997
-0.129680
0.061116
0.066083
0.037406
-0.022738
-0.014460
-0.144336
0.044475
-0.090293
0.028467
0.052257
0.040342
0.176742
-0.078614
-0.058802
0.085710
0.022669
0.016268
0.002436
0.061546
-0.046932
-0.032226
0.068022
-0.104360
0.118989
-0.024228
0.027449
0.047090
0.170399
-0.090378
0.042540
-0.005533
0.009321
-0.111993
0.051791
0.109220
0.080414
0.124639
-0.101869
0.108460
-0.016283
-0.002469
-0.006535
0.198296
0.101025
-0.013182
-0.041839
0.102556
0.002116
0.043019
0.009630
-0.146733
-0.085466
0.016691
0.021150
-0.005696
0.165048
0.150041
-0.124848
-0.042464
-0.060411
0.052645
0.039013
0.050787
-0.038879
0.099088
-0.050205
0.012909
0.049858
-0.067712
0.023889
0.015742
0.017531
0.073127
0.078802
-0.087741
0.077642
-0.124620
0.175527
-0.051122
0.103157
-0.060716
0.111089
0.006797
0.074506
-0.033371
0.002066
0.009579
-0.008978
0.088554
-0.036568
-0.112641
0.013281
0.084779
0.050794
0.032748
-0.014599
-0.023613
0.061497
0.022216
0.150171
-0.089994
0.106743
0.100844
0.022803
0.051191
0.217374
0.060910
0.019838
0.026055
0.019023
-0.006746
-0.080225
0.099452
0.106199
0.043162
-0.099717
0.010573
-0.028335
0.199386
-0.152044
0.124326
0.004560
0.139808
-0.024350
0.017620
0.173506
0.124050
0.143097
0.125698
0.092320
0.186229
0.076031
0.069519
0.153483
-0.035690
0.057240
0.116631
0.051219
0.167674
0.089980
-0.007440
-0.000290
-0.086748
-0.112857
0.102842
-0.122028
0.003243
-0.062157
-0.052817
-0.126494
-0.056745
0.158042
-0.099803
0.082572
0.035354
0.148634
-0.013405
-0.069051
0.018504
0.038749
-0.008320
-0.077356
0.041349
0.055472
-0.113139
-0.170355
-0.021154
0.076720
-0.024449
0.022467
-0.141269
0.050716
-0.086532
0.108453
-0.062954
0.074672
-0.061643
0.010889
-0.118521
-0.023707
-0.025156
0.115131
-0.097456
0.035504
0.094610
0.064393
-0.120058
0.003632
-0.000921
-0.046634
0.031628
0.171804
-0.060856
-0.026273
0.144424
-0.151310
0.041720
-0.040260
-0.026493
-0.108461
0.090456
-0.126980
0.162704
0.049656
-0.030925
0.118119
-0.093302
-0.030457
-0.207669
0.005341
0.060889
-0.036369
0.128085
0.111913
-0.031703
0.099135
0.083614
0.014057
0.047576
-0.060268
0.200269
0.148140
-0.013832
0.012243
0.083636
0.067988
0.032042
0.096617
0.062789
-0.036360
0.007794
-0.154962
-0.168962
-0.027983
-0.030306
0.090504
-0.018787
0.092324
-0.051123
0.103714
-0.051459
-0.038312
-0.031069
0.004739
0.078696
0.049707
-0.105613
0.023378
-0.005491
-0.086780
0.016037
0.037795
-0.064937
0.035333
-0.006925
-0.014089
0.074130
-0.046355
0.002279
0.029452
0.116989
0.164849
0.047487
-0.002372
0.038933
0.012245
0.023795
0.077791
0.115964
-0.055031
0.059164
-0.040612
-0.061227
-0.180584
-0.046806
-0.119318
-0.103645
-0.062385
-0.037196
-0.061674
-0.108665
0.035981
-0.106849
0.048750
0.032205
0.012474
-0.022864
-0.022105
-0.045860
0.021531
0.112589
-0.009043
0.099811
0.059345
0.093482
0.008428
0.011724
-0.040602
-0.051233
-0.260059
-0.023750
-0.009500
-0.014518
-0.021292
0.010689
-0.100704
0.028205
-0.213995
-0.154113
-0.089301
-0.069041
-0.075674
-0.312654
-0.159321
-0.117661
-0.118157
-0.075175
-0.006847
-0.032449
-0.184450
0.089298
-0.066327
0.089101
-0.124091
-0.053575
-0.067896
0.027398
0.046192
-0.017230
0.073387
-0.095904
0.084412
-0.067118
-0.013601
0.009602
-0.116213
-0.067094
0.135026
0.068540
0.002839
0.071409
-0.066834
0.057143
-0.021186
-0.064349
0.044124
0.100593
-0.080117
-0.025692
-0.043615
-0.096680
-0.157296
0.067668
-0.105801
-0.026457
0.039532
-0.020027
0.160077
-0.089541
-0.020563
0.004968
0.125108
-0.016545
0.116177
-0.082774
0.025995
0.055905
-0.002280
0.035025
0.006881
-0.033086
0.110854
0.132872
0.106323
0.004836
0.000358
0.156091
-0.041111
-0.132565
-0.073101
-0.026447
0.057065
-0.003844
0.013031
0.039164
0.269233
0.181942
0.030251
-0.208449
-0.052685
0.103472
0.095761
-0.105173
0.044575
0.102018
0.000944
0.029770
-0.017306
0.031834
0.311245
0.208748
-0.241984
-0.353995
-0.078579
0.042200
-0.066566
0.016129
-0.118325
-0.070836
0.024644
0.032754
0.042815
0.095474
0.505502
0.398253
0.036967
-0.203255
-0.084069
-0.022387
-0.060991
-0.038226
-0.016628
-0.038236
0.021736
-0.114516
-0.314443
0.024617
0.399735
0.295305
0.139023
0.220742
0.063506
-0.006257
-0.098241
-0.034252
-0.007940
0.057587
0.066243
-0.149625
-0.358997
-0.099698
-0.083554
-0.099053
0.038273
0.082339
0.045905
0.169637
0.053129
0.097785
0.159476
-0.031470
-0.018783
-0.004605
0.259780
0.148565
0.018826
0.101245
0.057927
-0.005334
-0.031202
0.003779
-0.000299
-0.061708
0.007000
-0.052734
-0.113437
-0.204923
0.015184
-0.100579
0.039925
-0.202663
0.004127
0.169195
-0.031790
0.023014
-0.000330
-0.204367
-0.058327
-0.035049
-0.093737
-0.229672
-0.185260
0.050559
-0.164698
-0.103486
-0.001851
-0.106754
-0.076054
-0.182699
-0.129862
0.040672
-0.030710
0.020791
-0.147150
-0.090996
-0.037139
-0.039495
-0.151674
-0.037290
-0.129762
0.054595
-0.124841
0.147199
0.070631
0.149883
-0.042447
0.037215
-0.034210
-0.003473
-0.027433
-0.018901
-0.080598
-0.068891
-0.022994
-0.053994
-0.116493
0.132557
-0.028021
0.137548
-0.046669
0.018865
-0.030224
-0.083363
-0.035929
-0.053099
-0.141483
-0.014161
-0.071866
-0.005080
-0.022473
0.010302
-0.080704
0.075696
0.044373
0.002049
0.079508
-0.039644
0.010014
-0.054230
-0.020250
-0.022799
-0.053081
0.089087
0.045408
-0.128881
0.048361
0.007315
-0.056698
0.034707
-0.036373
-0.045120
0.074371
0.015905
-0.041421
0.044909
0.079136
0.079403
-0.001140
0.081828
-0.035811
0.019045
-0.025792
-0.036160
0.050258
-0.022474
0.046428
0.033332
-0.215028
0.012859
-0.090267
-0.086351
0.027980
-0.003381
0.140566
-0.061300
0.027604
0.036337
0.102057
-0.005110
0.061013
-0.018209
0.057061
0.001500
-0.036663
-0.025216
-0.024053
0.065589
0.099669
-0.006665
-0.017601
0.076212
0.060017
0.085622
0.007423
0.102912
0.079685
-0.036494
0.071266
-0.093781
0.007342
-0.011187
0.055013
0.036869
0.144873
-0.061282
0.072287
0.051390
-0.004847
0.007466
0.068569
0.051204
0.026063
0.037117
-0.015572
0.017813
0.028746
-0.080220
0.032609
0.078347
0.053496
0.021732
0.029516
-0.043679
-0.038812
0.077565
-0.046554
0.046587
-0.076179
0.119724
-0.061581
0.075358
-0.058295
0.058463
-0.022703
-0.013530
0.040183
0.119680
-0.003174
-0.029640
0.035355
0.047042
-0.073088
-0.089757
0.080057
0.003883
-0.101655
-0.065230
0.120039
-0.166146
-0.174777
-0.013153
0.065404
-0.022453
0.136604
-0.027184
-0.077958
0.037546
0.051161
0.192795
0.113263
-0.009182
-0.030578
-0.027528
0.120600
0.043256
0.061273
0.129252
-0.090366
0.118750
0.102424
0.008315
-0.059772
-0.023902
0.031113
-0.112178
-0.050329
0.041861
0.034463
-0.074573
0.030252
0.027345
-0.079760
-0.024861
-0.033447
0.098278
-0.020858
0.041795
0.024745
0.031788
0.058832
-0.044612
0.075832
0.022530
0.008907
-0.031752
-0.012372
0.004040
0.033148
-0.052270
0.066811
-0.183897
0.032572
0.027299
0.057276
0.073147
0.007307
0.081938
-0.089743
0.020538
0.138052
-0.035458
-0.178679
0.093974
-0.112055
-0.006762
0.079379
-0.058452
-0.019136
-0.228989
0.034233
-0.001001
-0.006674
0.094062
0.017761
0.088945
0.091019
0.055228
0.127859
